<?xml version="1.0"?>
<opencv_storage>
<opencv_ml_svm>
  <format>3</format>
  <svmType>C_SVC</svmType>
  <kernel>
    <type>LINEAR</type></kernel>
  <C>1.</C>
  <term_criteria><epsilon>1.0000000000000000e-02</epsilon>
    <iterations>1000</iterations></term_criteria>
  <var_count>400</var_count>
  <class_count>10</class_count>
  <class_labels type_id="opencv-matrix">
    <rows>10</rows>
    <cols>1</cols>
    <dt>i</dt>
    <data>
      0 1 2 3 4 5 6 7 8 9</data></class_labels>
  <sv_total>45</sv_total>
  <support_vectors>
    <_>
      0. 0. 0. 0. 0. 0. 0. 0. 0. 0. 0. 0. 0. 0. 0. 0. 0. 0. 0. 0. 0. 0.
      0. 0. 0. 0. 0. 0. 0. 0. 0. 0. 0. 0. 0. 0. 0. 0. 0. 0. 0. 0. 0. 0.
      0. 0. 0. 1.85001142e-07 6.10503776e-06 -3.09322240e-05
      -9.76820302e-05 -1.07653679e-04 -3.94292474e-05 -3.58463149e-06
      -3.42010935e-06 2.54574786e-07 1.05263889e-05 7.33114803e-06 0. 0.
      0. 0. 0. 0. 0. 0. 4.55129339e-06 1.83724915e-05 -1.29466716e-05
      -2.93767771e-05 -2.37716831e-05 -1.20687728e-05 -3.01470918e-05
      4.85485316e-06 -1.76709145e-05 4.25469807e-05 9.69231769e-05
      6.28724665e-05 0. 0. 0. 0. 8.47739212e-09 7.62965300e-08
      1.69547842e-08 9.76459341e-06 2.83970912e-05 6.82308673e-05
      -3.14311510e-05 9.44586573e-05 3.47489004e-05 9.96449671e-05
      2.59609573e-04 8.26090763e-05 4.98714762e-05 1.42629404e-04
      1.16474344e-04 6.60914448e-05 0. 0. 0. 0. 0. 8.47739212e-09
      7.77857440e-06 2.97562165e-05 5.21975235e-05 1.10126188e-04
      4.47205639e-05 1.05021987e-04 -1.08500768e-04 5.12353290e-05
      2.54559593e-04 2.87150120e-04 7.71728955e-05 9.77781528e-05
      1.14955612e-04 5.93021578e-05 0. 0. 0. 0. 0. 2.06876985e-06
      2.20588754e-05 6.68778957e-05 1.10896312e-04 7.97742687e-05
      1.30100016e-04 -7.20076787e-05 -1.80904492e-04 -6.37409830e-05
      4.47707389e-05 2.28605029e-04 1.23093967e-04 1.33029956e-04
      1.51697910e-04 6.33607415e-05 0. 0. 0. 0. 0. 6.39827522e-06
      4.25441394e-05 1.22100639e-04 2.09550097e-04 1.84805220e-04
      1.64883473e-04 -1.33092341e-04 -2.20573347e-04 -2.14768777e-04
      -1.00572048e-04 1.90474020e-04 2.17132561e-04 1.91328014e-04
      1.57679606e-04 4.96691791e-05 0. 0. 0. 0. 0. 1.75006044e-05
      8.82396271e-05 7.11531829e-05 9.18676233e-05 9.55500509e-05
      1.28411761e-04 -3.92252405e-05 -3.10276024e-04 -4.45624581e-04
      -1.44623293e-04 2.17149354e-04 3.10221134e-04 2.00813913e-04
      1.35916620e-04 4.49648833e-05 0. 0. 0. 0. 0. 4.37147501e-05
      1.17590411e-04 9.40565733e-05 1.41550132e-04 2.38768160e-04
      2.14194588e-04 -1.51780856e-04 -5.28189819e-04 -4.72566026e-04
      -2.37008917e-05 2.24990319e-04 3.25689849e-04 2.09439764e-04
      1.31119028e-04 4.17692136e-05 0. 0. 0. 0. 4.22215680e-06
      6.09834606e-05 1.23400925e-04 1.88864884e-04 2.09405393e-04
      3.09421041e-04 1.23873804e-04 -2.75316910e-04 -6.52980758e-04
      -3.25207395e-04 4.54092587e-05 3.23136774e-04 3.02503438e-04
      1.91152751e-04 1.36101487e-04 3.76769640e-05 0. 0. 0. 0.
      6.60859359e-06 6.08127521e-05 1.36450821e-04 2.13832929e-04
      2.13621854e-04 2.61395966e-04 -1.36184517e-05 -4.39044554e-04
      -5.34190040e-04 -2.43403003e-04 1.22375262e-04 4.03270562e-04
      2.36641106e-04 2.17209134e-04 1.11682602e-04 3.22080414e-05 0. 0.
      0. 0. 3.30429680e-06 6.26855035e-05 1.82540636e-04 1.79799245e-04
      2.09930135e-04 1.39496537e-04 -2.10259110e-04 -3.84800427e-04
      -4.01209953e-04 -1.34065602e-04 2.89113959e-04 3.27977818e-04
      9.17922807e-05 2.24656731e-04 9.40038371e-05 2.71284716e-05 0. 0.
      0. 0. 0. 6.59615180e-05 1.82340009e-04 2.45182513e-04
      2.19571419e-04 -8.79459039e-05 -3.36063211e-04 -2.92811863e-04
      -3.90429312e-04 1.04424744e-05 3.11624899e-04 2.13461735e-05
      -9.99318436e-05 1.43704645e-04 7.61034171e-05 1.66245136e-05 0. 0.
      0. 0. 0. 4.09810855e-05 1.13519040e-04 2.04893484e-04
      -2.89490727e-05 -1.76333895e-04 -2.67051597e-04 -2.07152101e-04
      -2.06226017e-04 1.86255376e-04 1.04087820e-04 -1.09197608e-04
      -4.50947628e-05 1.30606568e-04 3.69073132e-05 3.62324181e-06 0. 0.
      0. 0. 0. 3.73211114e-05 1.17659583e-04 3.41687337e-05
      -6.85532359e-05 1.11781672e-04 1.41608776e-04 2.27046534e-04
      2.07789490e-04 8.86145135e-05 2.02822976e-05 5.68787982e-05
      1.52200315e-04 1.05243875e-04 5.61239312e-06 0. 0. 0. 0. 0. 0.
      4.04275961e-05 1.34106216e-04 -6.95088820e-05 2.33273786e-05
      3.01604858e-04 4.83829819e-04 4.64915502e-04 7.55611691e-05
      -8.85481131e-05 4.11203291e-05 1.26042418e-04 9.48053203e-05
      1.42522322e-05 0. 0. 0. 0. 0. 0. 0. 4.48425671e-05 9.61126425e-05
      7.17296280e-05 4.28582025e-05 1.34592527e-04 1.93642656e-04
      1.42520992e-04 6.77643839e-05 -1.32562136e-05 3.15882608e-05
      3.49407128e-05 1.60414459e-06 0. 0. 0. 0. 0. 0. 0. 0. 0. 0. 0. 0.
      0. 0. 0. 0. 0. 0. 0. 0. 0. 0. 0. 0. 0. 0. 0. 0. 0. 0. 0. 0. 0. 0.
      0. 0. 0. 0. 0. 0. 0. 0. 0. 0. 0.</_>
    <_>
      0. 0. 0. 0. 0. 0. 0. 0. 0. 0. 0. 0. 0. 0. 0. 0. 0. 0. 0. 0. 0. 0.
      0. 0. 0. 0. 0. 0. 0. 0. 0. 0. 0. 0. 0. 0. 0. 0. 0. 0. 0. 0. 0. 0.
      0. 0. -1.70019448e-05 -1.56987400e-04 -2.23363211e-04
      -2.11968305e-04 -1.92836713e-04 -1.61240168e-04 5.21701804e-05
      3.38941667e-04 1.11237401e-04 -3.51429597e-04 8.66809114e-06
      6.92462891e-06 0. 0. 0. 0. 0. -3.88135277e-06 -4.35634793e-05
      -1.48240433e-04 -3.73878633e-04 -1.18341122e-04 -3.08919407e-05
      -2.02483614e-04 -1.62901735e-04 -5.95887483e-04 -5.64604241e-04
      2.36050328e-04 4.11993300e-04 -9.56279473e-05 6.65178522e-05
      5.70993470e-05 0. 0. 0. 0. 3.32901777e-06 -5.81873792e-05
      -1.96990673e-04 -5.09877747e-04 -4.11743706e-04 5.31439204e-04
      2.93467427e-04 -6.12612166e-06 -1.32641799e-04 -4.61301737e-04
      2.06945741e-04 6.38494093e-04 2.50793644e-04 -9.51099646e-05
      9.90833432e-05 6.41885563e-05 0. 0. 0. 0. -1.79924682e-05
      -2.24006901e-04 -2.73688929e-04 -3.28571419e-04 -9.62994673e-05
      -1.44459154e-05 1.06563020e-04 -8.57468040e-05 -2.81482469e-04
      -1.72793356e-04 2.20846807e-04 1.44204672e-03 3.76991055e-04
      -5.73231024e-04 5.59369691e-05 9.28172449e-05 0. 0. 0. 0.
      -3.48856374e-05 -2.52228900e-04 -1.70371539e-04 -2.09470105e-04
      -4.48568389e-05 8.77695129e-06 1.99317408e-04 -5.99852756e-05
      -2.58168555e-04 -2.52863247e-04 -2.74718972e-04 6.83685008e-04
      4.46032616e-04 -6.89169974e-05 2.02175957e-04 1.12145819e-04 0. 0.
      0. 0. -1.37559500e-05 -7.85710872e-05 9.46744112e-05
      3.76739699e-05 3.03736655e-04 5.71670069e-04 9.35682678e-04
      3.08772724e-04 -1.78900562e-04 1.02464903e-04 3.53309122e-04
      4.15637915e-04 3.63357249e-04 2.18711721e-04 5.32822858e-04
      1.08034495e-04 -1.45750382e-05 0. 0. 0. 0. 8.07806937e-05
      5.60901011e-04 3.94595612e-04 4.53123852e-04 1.24909438e-03
      8.36630410e-04 -1.67284423e-04 1.47578437e-04 -2.20792528e-04
      5.44104660e-05 6.14687044e-04 2.19761539e-04 2.15532555e-06
      6.44788146e-04 8.32781734e-05 -9.71669215e-05 0. 0. 0. 0.
      1.70080093e-04 6.52081741e-04 1.86178499e-04 7.25059828e-04
      1.36154448e-03 2.70738004e-04 -4.34256945e-04 -3.42779007e-04
      -8.38449108e-04 -6.48926871e-05 1.54230773e-04 1.63973396e-04
      1.76438945e-04 6.30746828e-04 3.84630257e-04 -2.06479708e-05 0. 0.
      0. 1.79951730e-05 2.47992255e-04 2.31362676e-04 -3.31950665e-04
      -8.75016667e-06 4.07110812e-04 -3.82833183e-04 -3.64746724e-04
      -1.14150788e-03 -9.37626115e-04 -5.61018314e-05 2.57511798e-04
      3.11767275e-04 7.86195160e-04 6.95303374e-04 5.23291761e-04
      -3.75893869e-05 -4.66999336e-06 0. 0. 3.72757167e-05
      5.76297061e-05 -2.78751813e-05 2.97751860e-04 -7.48352079e-07
      -3.40524159e-04 -4.40032454e-04 -9.69036599e-04 -7.69423496e-04
      -3.56318546e-04 1.27189545e-04 3.64538049e-04 1.21933859e-04
      3.65243177e-04 4.09516389e-04 4.75468580e-04 -6.82206664e-05
      -9.80698587e-06 0. 0. 0. -1.38266070e-04 -8.18507469e-05
      4.88198391e-04 -1.86324192e-04 -5.25209878e-04 -5.11154591e-04
      -1.33134506e-03 -1.28910004e-03 -5.70944801e-04 6.67512140e-05
      1.93087137e-04 -1.24196973e-04 3.29835515e-04 1.22616024e-04
      1.37603347e-04 -5.60399167e-06 -2.33499662e-07 0. 0. 0.
      -6.22772859e-05 -2.96021142e-04 2.30624457e-04 8.38536216e-05
      -3.53883923e-04 -3.96489340e-04 -5.31970407e-04 -7.63703662e-04
      -3.61497543e-04 3.73195799e-04 -2.55666382e-05 -4.63611999e-04
      -1.72748740e-04 -2.20107919e-04 -2.62607442e-04 0. 0. 0. 0. 0.
      -1.24315062e-04 -5.93744626e-04 5.98439481e-04 2.38662949e-04
      1.07123007e-04 -9.44586718e-05 -5.40050933e-05 -4.40702948e-04
      5.39509521e-04 6.64336490e-04 -4.69373888e-04 -7.98538327e-04
      -4.93144384e-04 -2.75293074e-04 -1.68340659e-04 0. 0. 0. 0. 0.
      -1.00149322e-04 -2.76083796e-04 2.03736796e-04 -1.58489653e-04
      -7.89211248e-04 -8.73007346e-04 -5.73248952e-04 5.67299896e-04
      7.37854978e-04 -3.65741260e-04 -3.58267396e-04 3.86337924e-04
      3.33663338e-04 -9.04001499e-05 0. -2.26230213e-06 0. 0. 0. 0.
      8.70307122e-06 1.01855810e-04 7.56988957e-05 3.69974994e-04
      1.22184385e-04 3.49912560e-04 6.33745047e-04 2.74404505e-04
      -5.07527766e-05 3.14374956e-05 2.57803767e-04 1.87770944e-04
      -2.60337692e-04 -2.18313900e-04 -1.42316267e-05 -8.37051775e-05
      -4.29837419e-05 0. 0. 0. 6.46301341e-05 1.42878969e-04
      1.24766768e-04 1.62127792e-04 2.35336804e-04 2.04429103e-04
      -1.46549704e-04 -1.73323191e-04 -1.36648829e-04 -1.61346630e-04
      -1.29154418e-04 -9.14578559e-05 -1.34917122e-04 -1.34131711e-04
      -1.22909496e-05 -2.03607196e-05 -9.04920853e-06 0. 0. 0. 0. 0. 0.
      0. 0. 0. 0. 0. 0. 0. 0. 0. 0. 0. 0. 0. 0. 0. 0. 0. 0. 0. 0. 0. 0.
      0. 0. 0. 0. 0. 0. 0. 0. 0. 0. 0. 0.</_>
    <_>
      0. 0. 0. 0. 0. 0. 0. 0. 0. 0. 0. 0. 0. 0. 0. 0. 0. 0. 0. 0. 0. 0.
      0. 0. 0. 0. 0. 0. 0. 0. 0. 0. 0. 0. 0. 0. 0. 0. 0. 0. 0. 0. 0. 0.
      -2.55084774e-06 -7.65254299e-06 -8.16271222e-06 -6.37711901e-06
      -8.34475122e-06 -1.45504833e-04 -2.96423590e-04 -3.65723768e-04
      -3.58079677e-04 4.71468866e-06 2.40415524e-04 3.83988736e-05
      1.21117273e-05 9.55534415e-06 0. 0. 0. 0. 0. -5.10169548e-06
      -4.03033919e-05 -6.97432188e-05 -1.38551302e-04 -2.77334824e-04
      -3.64265084e-04 -5.29755489e-05 8.54612663e-05 -1.41357334e-04
      -2.59603054e-04 -6.31277362e-05 5.95252670e-04 4.03587590e-04
      1.38592426e-04 6.42888117e-05 0. 0. 0. 0. -1.11472627e-05
      -5.54447761e-05 -1.16460156e-04 -2.27135359e-04 -5.70202421e-04
      -5.10747894e-04 -1.49403189e-04 1.56796785e-04 -2.62561225e-04
      -5.51006640e-04 1.60606069e-04 8.93596516e-05 4.40798845e-04
      3.21855099e-04 8.17882119e-06 4.42852979e-05 0. 0. 0. 0.
      -8.59423526e-05 -3.15520796e-04 -3.79164121e-04 -3.22481588e-04
      -4.42022865e-04 -1.70086467e-04 -4.08984197e-05 1.75358407e-04
      -3.15708661e-04 2.03763047e-04 2.05371005e-04 5.13728010e-04
      1.65391248e-04 -1.60774449e-04 -1.69040140e-05 9.57102384e-05 0.
      0. 0. -1.32591902e-06 -1.88837759e-04 -1.79633455e-04
      -6.81301535e-05 8.31524812e-05 1.55931426e-04 2.13707404e-04
      2.46768119e-04 -2.35447063e-04 -1.89538216e-04 3.44405671e-05
      -1.62449767e-04 4.68847575e-04 6.48605419e-05 9.95543960e-05
      3.47797381e-04 1.79097362e-04 0. 0. 0. -1.69989619e-06
      -1.98465277e-05 1.02235672e-05 1.13609218e-04 8.51648292e-05
      1.76740155e-04 2.91701173e-04 2.70270190e-04 -2.92980374e-04
      -1.61478252e-04 8.15751191e-05 9.89037144e-05 1.60419077e-04
      1.99847331e-04 3.85081541e-04 4.89687838e-04 1.91334460e-04 0. 0.
      0. 0. 0. 4.90950260e-05 2.89569463e-04 7.76095112e-05
      1.50739812e-04 9.69366956e-05 -1.34125468e-04 -2.53505539e-04
      -1.33434034e-04 -7.82347517e-04 -7.21795019e-04 1.43425757e-04
      2.28395787e-04 2.92179611e-04 4.40735923e-04 1.89035985e-04 0. 0.
      0. 0. -9.20042055e-07 9.80856930e-05 3.18536768e-04 1.64415775e-04
      2.32480030e-04 2.34580439e-04 3.06436588e-04 -2.89214622e-05
      -6.80168858e-04 -1.40536448e-03 -7.07837404e-04 2.09435908e-04
      2.73098238e-04 3.01053748e-04 4.40352160e-04 1.30353073e-04 0. 0.
      0. 0. -9.20042055e-07 7.40913019e-05 3.01057997e-04 3.17746104e-04
      2.53295846e-04 5.76267310e-04 7.37528217e-06 -6.78919954e-04
      -1.13426405e-03 -8.90852243e-04 -2.67036987e-04 2.86358438e-04
      2.19930822e-04 4.08193649e-04 3.69577145e-04 1.20248500e-04 0. 0.
      0. 0. -9.41338840e-06 -7.94617517e-05 3.20723164e-04
      6.52218645e-04 7.67606020e-04 8.41911417e-04 2.17591096e-05
      -8.71560245e-04 -9.20875988e-04 -6.68380409e-04 -1.66172642e-04
      6.14769669e-06 -3.15959405e-05 4.69054590e-04 1.38055300e-04
      8.64571557e-05 0. 0. 0. 0. -5.29731296e-05 -2.31683240e-04
      3.32377240e-04 6.79077348e-04 9.06610396e-04 1.03298901e-03
      2.17023538e-04 -6.48216170e-04 -6.32062496e-04 -4.93115222e-04
      -2.24846401e-04 -3.51094757e-04 1.71674707e-04 1.87707585e-04
      -5.64304864e-05 8.68816278e-05 0. 0. 0. -4.67602740e-06
      -2.89108750e-04 -4.58757335e-04 -3.60809827e-05 5.06749377e-04
      9.79345292e-04 6.65134809e-04 1.94244480e-04 -1.49575799e-05
      -4.86226723e-04 -3.97827651e-04 -4.86361270e-04 -3.89993016e-04
      3.81671794e-04 -3.67534849e-05 -1.15858580e-04 6.77111893e-05 0.
      0. 0. -3.52092502e-06 -3.43228807e-04 -5.80679276e-04
      -6.15021097e-04 -4.26819588e-06 1.11901667e-04 2.87275499e-04
      -3.67912435e-05 -1.02611040e-04 -6.64279141e-05 1.31812441e-04
      -1.90505962e-04 -7.85090961e-05 1.40475777e-06 -1.37474854e-04
      -7.05675993e-05 1.93819214e-05 0. 0. 0. 0. -5.82924476e-05
      -1.09591514e-04 -8.66557384e-05 1.89080201e-05 -1.89930186e-04
      -4.70691020e-06 -9.77437012e-05 2.71491263e-06 2.40325156e-04
      -8.54906557e-06 -2.64693925e-04 -2.36314401e-04 -1.41611396e-04
      -2.16535791e-05 2.52032587e-05 0. 0. 0. 0. 0. -1.83257143e-05
      -3.19292558e-05 2.95223988e-04 5.61656852e-05 2.95343576e-04
      1.22740501e-04 1.25088161e-04 2.15806285e-04 -3.33947064e-05
      -1.19209661e-04 -1.42747813e-04 -2.77909749e-05 4.76314453e-05
      1.16536385e-05 0. 0. 0. 0. 0. 0. -1.03354341e-06 7.22972254e-05
      1.35821159e-04 -8.89518633e-05 -1.50362932e-04 -1.97499670e-04
      -2.60419678e-04 -1.36289222e-04 1.28287473e-04 1.65534017e-04
      5.27444099e-05 5.75796403e-05 2.70870714e-06 0. 0. 0. 0. 0. 0. 0.
      0. 0. -1.21778539e-05 -1.66480986e-05 -1.23820037e-05
      -2.28343779e-05 -5.04169839e-06 -4.41066561e-07 0. 0. 0. 0. 0. 0.
      0. 0. 0. 0. 0. 0. 0. 0. 0. 0. 0. 0. 0. 0. 0. 0. 0. 0. 0. 0. 0. 0.
      0. 0.</_>
    <_>
      0. 0. 0. 0. 0. 0. 0. 0. 0. 0. 0. 0. 0. 0. 0. 0. 0. 0. 0. 0. 0. 0.
      0. 0. 0. 0. 0. 0. 0. 0. 0. 0. 0. 0. 0. 0. 0. 0. 0. 0. 0. 0. 0. 0.
      0. 0. 0. -4.63150371e-07 -1.39595941e-05 7.74612909e-06
      4.39071155e-05 1.49304651e-06 1.48204217e-05 1.50033709e-04
      1.40123098e-04 -4.14042961e-06 -1.37037887e-06 2.40447747e-07 0.
      0. 0. 0. 0. 0. -1.55386078e-06 -1.53374531e-05 -1.61688586e-05
      -8.96461097e-06 -2.74125682e-06 1.52694643e-04 3.31495219e-04
      2.58127344e-04 1.13208538e-04 2.06518933e-04 1.84759469e-04
      -3.23332679e-05 -1.64484591e-05 -4.28003477e-06 0. 0. 0. 0.
      1.41665214e-06 1.27498697e-05 -8.76885588e-06 -8.10482306e-05
      -1.15728799e-04 8.43939633e-05 2.30362057e-04 2.19987211e-04
      2.96568382e-04 4.58066468e-04 5.14908228e-04 1.93223910e-04
      6.30367576e-05 -8.08695113e-05 -4.83579934e-05 -1.07776987e-05
      -3.63148411e-06 0. 0. 0. -9.42231736e-07 -1.99893793e-06
      -1.57636550e-05 -1.34604692e-04 -1.69589694e-04 6.03046356e-05
      1.07136519e-04 1.46023958e-04 8.66036207e-05 5.16150787e-04
      7.32035376e-04 5.05188422e-04 1.91041181e-04 7.08858352e-05
      2.31070453e-06 1.76428796e-06 -3.99136070e-06 0. 0. 0.
      -4.12226382e-06 -2.48513625e-05 -1.30454455e-05 -1.14440947e-04
      -2.59668432e-05 -4.72167494e-06 2.85671922e-05 -2.69492339e-05
      1.86111472e-04 3.21908708e-04 2.76363600e-04 4.13929432e-04
      1.95835324e-04 9.69012763e-05 2.34432391e-05 1.91015206e-05
      -1.63580367e-07 0. 0. 0. -4.59337980e-06 -3.00336378e-05
      -1.93984379e-05 -4.50877887e-05 -1.06849129e-05 -1.70537951e-05
      1.33298949e-04 1.53618937e-04 1.18358366e-04 1.79634535e-05
      -2.96741164e-05 2.38396286e-04 1.15074246e-04 -8.66780756e-05
      5.51301200e-05 2.80866971e-05 0. 0. 0. 0. -3.29781119e-06
      -1.56646038e-05 -3.56911869e-06 -3.85411950e-05 -1.01309131e-04
      -6.27257759e-05 1.08046625e-04 -5.21232578e-05 -3.54064578e-05
      -2.78487045e-04 -3.01118795e-04 1.53556233e-04 1.63207980e-04
      -1.31358087e-04 8.03293296e-05 2.16318131e-05 0. 0. 0. 0. 0.
      8.41567089e-06 -3.47153582e-05 -1.25735925e-04 -1.41006210e-04
      -9.57445372e-05 -5.13198247e-05 -1.98826936e-04 -2.82814552e-04
      -6.92402362e-04 -5.67839365e-04 -8.42460067e-05 6.27046538e-05
      -4.60482443e-05 6.74943003e-05 2.66993334e-06 0. 0. 0. 0. 0.
      1.10605970e-05 -7.43255005e-05 -2.27898025e-04 -3.21646832e-04
      9.02199899e-05 -1.49139290e-04 -3.90530447e-04 -6.39479782e-04
      -9.71793081e-04 -5.74596401e-04 -1.76547168e-04 -1.11348796e-04
      1.44809223e-04 3.70804373e-05 -2.73388900e-06 0. 0. 0. 0. 0.
      -1.58557873e-06 -7.04918348e-05 -1.21783341e-04 -1.89933970e-04
      1.05668689e-04 -1.54614696e-04 -4.91622428e-04 -6.14357006e-04
      -6.21436455e-04 -3.20754189e-04 -1.58798648e-04 -8.39181812e-05
      1.53574932e-04 -1.32259403e-04 -6.33178643e-05 0. 0. 0. 0.
      2.78767129e-05 1.08555047e-04 -6.04323395e-05 -1.89355429e-04
      -2.09901355e-05 2.99166768e-05 -1.87365600e-04 -5.93807606e-04
      -6.38084079e-04 -4.79943847e-04 -2.69818003e-04 -2.23471186e-04
      1.94044387e-05 6.31519724e-05 -1.39010212e-04 -9.83591308e-05 0.
      0. 0. 0. 1.36223825e-04 8.04756273e-05 -1.25385370e-04
      5.10577265e-05 8.36477848e-05 1.06384483e-04 -1.25629842e-04
      -2.81530636e-04 -3.76571581e-04 -3.62011633e-04 -1.53139626e-04
      4.23341407e-05 2.04886674e-04 1.68071769e-04 2.60723173e-05
      -2.00224258e-06 0. 0. 0. 0. 2.11847248e-04 5.75225822e-05
      7.97940374e-05 3.70014459e-04 1.80177725e-04 3.25125846e-04
      1.99582078e-04 2.10914979e-04 5.89608062e-05 8.86071939e-05
      -7.37052460e-06 8.04024530e-05 2.31480881e-05 1.96783250e-04
      -4.52381482e-06 -3.88670605e-06 0. 0. 0. 0. 2.45048490e-04
      8.46757612e-05 1.45674465e-04 5.03994233e-04 5.62521163e-04
      4.72813437e-04 4.43950004e-04 3.80118523e-04 5.04958269e-04
      2.80537613e-04 -1.27526349e-04 -1.72030224e-04 1.36056478e-04
      1.36017552e-04 -2.36920332e-05 -5.30005354e-06 0. 0. 0. 0.
      1.12121248e-04 7.74445725e-05 3.61635030e-05 1.37144627e-04
      3.97789641e-04 3.57056706e-04 4.82865085e-04 4.15565475e-04
      2.52647937e-04 1.08560253e-05 -1.56175200e-04 4.84156189e-05
      1.46334118e-04 2.34948629e-06 -2.35956195e-05 -5.53561176e-06 0.
      0. 0. 0. 0. 0. 0. 0. -1.23919353e-05 4.00446297e-05
      -1.16864394e-05 -3.07067967e-05 5.82233515e-05 4.84890625e-05
      -5.99081322e-05 9.99874737e-06 -1.59572883e-05 -2.00965987e-05
      -7.71956275e-06 -1.17778973e-06 0. 0. 0. 0. 0. 0. 0.
      -4.44049829e-06 -4.01838697e-05 -2.02861011e-05 0. -1.63580367e-07
      -3.20617505e-06 -1.01419823e-06 0. 0. 0. 0. 0. 0. 0. 0. 0. 0. 0.
      0. 0. -3.59468891e-06 -8.45809154e-06 0. 0. 0. 0. 0. 0. 0. 0. 0.
      0. 0. 0. 0.</_>
    <_>
      0. 0. 0. 0. 0. 0. 0. 0. 0. 0. 0. 0. 0. 0. 0. 0. 0. 0. 0. 0. 0. 0.
      0. 0. 0. 0. 0. 0. 0. 0. 0. 0. 0. 0. 0. 0. 0. 0. 0. 0. 0. 0. 0. 0.
      0. 0. 0. -1.08659706e-05 -9.07221620e-05 -1.12721689e-04
      -1.44474863e-04 -2.13864143e-04 -1.34851507e-04 -2.77917279e-05
      3.27040361e-05 4.59195371e-06 4.12836416e-05 3.44020118e-05 0. 0.
      0. 0. 0. 0. 0. 0. 0. -8.17804030e-05 -3.15122772e-04
      1.71669293e-04 5.22862596e-04 5.94230834e-04 -4.21284582e-04
      -4.08563530e-04 -4.99584348e-05 2.82174791e-04 3.94089002e-04
      2.35308704e-04 -3.76703611e-05 0. 0. 0. 1.04371316e-06
      9.39341771e-06 1.49174116e-06 0. -5.26895892e-05 -1.82485383e-04
      -2.18756322e-04 8.14091709e-06 5.26123855e-04 4.18016949e-04
      5.76623424e-04 3.42436018e-04 1.74490298e-04 2.05583012e-04
      4.37162817e-06 -3.43610300e-04 -3.95205745e-04 -2.99709172e-05 0.
      0. 0. -3.01778164e-06 -5.13011582e-05 -1.46088787e-05
      -1.27822423e-04 -3.71421862e-04 -4.34415299e-04 7.61312040e-05
      -6.41059014e-04 -7.81863782e-05 1.25449756e-03 1.25290733e-03
      -3.88148561e-04 -9.64778184e-04 -2.09444959e-04 -3.79406469e-04
      -2.39059023e-04 -1.03057828e-04 0. 0. 0. -1.67063045e-05
      -1.16745527e-04 5.11877843e-05 -3.60013255e-05 -3.09056108e-04
      -1.36951028e-04 -4.82151736e-05 -3.55374388e-04 3.70157068e-05
      7.53295782e-04 1.18418213e-03 -9.60210818e-05 -3.67336615e-04
      2.12844854e-04 -2.50765122e-04 -4.86250676e-04 -3.28670925e-04 0.
      0. 0. -2.50368339e-05 -1.67577655e-05 6.09835806e-05
      1.41770171e-04 -4.42421260e-05 -1.37814292e-04 -1.13295173e-04
      -4.61421936e-04 -2.83498375e-04 3.16942547e-04 1.14000158e-03
      1.14910549e-03 9.12224350e-04 7.97201588e-04 2.05489385e-04
      -1.05843181e-04 -3.06388138e-05 0. 0. -1.19137019e-06
      -4.85483324e-05 5.18192646e-05 -1.78931543e-04 2.60435390e-05
      -5.58280910e-04 -1.12118770e-03 -5.43818169e-04 -7.16882874e-04
      -1.21259876e-03 -5.46534255e-04 4.79606941e-04 6.55212905e-04
      8.66731454e-04 8.49773292e-04 2.64511560e-04 0. 0. 0. 0.
      -8.33959075e-06 -8.19888373e-06 2.42100010e-04 7.30332322e-05
      -2.49624107e-04 -5.93307661e-04 -3.73132119e-04 2.32609789e-04
      -4.48294217e-04 -1.02288660e-03 -2.59140379e-05 3.04575311e-04
      4.71187843e-04 7.59163988e-04 8.84544046e-04 1.49444517e-04 0. 0.
      0. 0. -2.38274038e-06 5.09925085e-05 4.65655525e-04 1.02767372e-03
      4.35641268e-05 2.59853725e-04 4.39747353e-04 -5.71506971e-04
      -1.21770240e-03 -1.32713467e-03 -2.02468000e-04 -2.17314596e-06
      1.81741576e-04 7.22961500e-04 7.08068081e-04 8.29762212e-05 0. 0.
      0. 0. 6.02665523e-06 1.23983802e-04 3.76482814e-04 1.38937950e-03
      5.19121066e-04 2.62754940e-04 -9.64534265e-05 -1.06420240e-03
      -1.05430372e-03 -4.38485440e-04 -2.70503224e-05 1.80971256e-04
      -9.63161710e-06 5.00847702e-04 2.57580454e-04 1.77482218e-06 0. 0.
      0. 0. 2.16315457e-05 5.76616440e-05 9.69083849e-05 5.86177339e-04
      1.04552892e-03 4.64222918e-04 -2.69106793e-04 -8.64060246e-04
      -4.76537534e-04 -2.76928127e-04 3.32310039e-04 5.78437466e-04
      1.98774913e-04 1.19285914e-05 -2.42037004e-06 -4.76828791e-06 0.
      0. 0. -7.00042219e-05 -8.63454770e-05 1.32056724e-04
      1.40596239e-04 1.30527378e-05 5.46798692e-04 1.16454961e-03
      2.23941883e-04 -7.88764039e-04 -7.84364878e-04 5.44566356e-05
      3.46586079e-04 -1.76463527e-05 4.17972988e-05 -4.12558380e-04
      -2.20741967e-05 -4.76548075e-06 0. 0. 0. -1.38778065e-04
      -2.51012680e-04 1.35989118e-04 1.89223982e-04 2.49981851e-04
      -6.00508996e-04 -3.93499977e-05 -4.31323060e-05 -2.42406430e-04
      -3.07666924e-04 1.59697840e-04 -3.48986301e-04 3.77359793e-05
      -8.41381785e-04 -5.99380837e-05 -6.63423270e-05 -7.74390628e-06 0.
      0. 0. -4.40641543e-06 -2.17842626e-05 1.44260892e-04
      1.91645267e-05 6.16624166e-05 -2.50847486e-04 1.20131961e-04
      -1.91465879e-04 -2.10332088e-04 -2.29105339e-04 -1.61147007e-04
      1.90487262e-04 -6.36058219e-04 -4.65056743e-04 8.54070022e-05
      -5.72062381e-05 -2.38274038e-06 0. 0. 0. 0. 6.48593914e-06
      1.16486430e-04 4.08972381e-04 3.52900206e-05 3.05497495e-04
      1.50706721e-04 3.11034673e-04 2.93098332e-04 -6.81671081e-05
      -2.43074479e-04 -4.26088984e-04 -4.86547506e-04 5.95713936e-05
      -2.90504759e-05 -9.53096151e-06 0. 0. 0. 0. 0. 0. 7.75601584e-05
      1.53935238e-04 5.24702555e-05 -4.12885602e-05 -1.44172227e-04
      -3.54214513e-04 -3.28752241e-04 4.86045356e-05 1.52028588e-04
      -6.30875365e-05 4.01721918e-05 -2.02587071e-05 -7.14822090e-06 0.
      0. 0. 0. 0. 0. 0. 0. -1.41601606e-06 -1.18606804e-04
      -3.68552806e-04 -2.15879991e-04 -5.49250362e-05 0. -2.68058284e-06
      -3.87195314e-06 -3.57411045e-06 -2.97842547e-07 0. 0. 0. 0. 0. 0.
      0. 0. 0. 0. 0. 0. 0. 0. 0. 0. 0. 0. 0. 0. 0. 0. 0. 0. 0. 0.</_>
    <_>
      0. 0. 0. 0. 0. 0. 0. 0. 0. 0. 0. 0. 0. 0. 0. 0. 0. 0. 0. 0. 0. 0.
      0. 0. 0. 0. 0. 0. 0. 0. 0. -1.11210272e-06 -9.50342292e-06
      -3.94290964e-06 0. 0. 0. 0. 0. 0. 0. 0. 0. 0. 0. 0.
      -3.27176567e-05 -1.50786145e-04 -1.27431296e-04 -3.14077915e-05
      -1.65608973e-04 -2.54338898e-04 -4.41632001e-04 -4.04467486e-04
      -2.62536458e-04 -2.61039066e-04 -1.70978601e-04 5.44720024e-06 0.
      0. 0. 0. 0. 0. 0. -2.25388303e-05 -1.14420218e-04 -8.65982074e-05
      7.86186356e-05 1.28336105e-04 3.38691316e-04 3.44752101e-04
      -6.35194519e-05 -1.96559733e-04 -1.68569444e-04 -1.32899469e-04
      7.15714923e-05 7.45795405e-05 0. 0. 0. 0. 1.03343586e-06
      9.30092301e-06 2.06687173e-06 -2.96129365e-05 -6.33719028e-05
      1.91907995e-04 2.09570935e-04 2.43732502e-04 2.62488698e-04
      1.42949022e-04 4.91741637e-04 4.27171472e-04 2.35616870e-04
      3.23641725e-04 3.19768180e-04 8.31217840e-05 0. 0. 0. 0. 0.
      1.03343586e-06 3.28741808e-05 -2.35067382e-05 9.19572922e-05
      1.54317822e-04 1.09117987e-04 4.23464313e-04 -1.08944267e-04
      1.47285673e-05 7.60329713e-04 1.12125603e-03 6.61742932e-04
      2.57312844e-04 3.28196009e-04 1.14448034e-04 0. 0. 0. 0. 0.
      9.12986616e-06 6.10607749e-05 3.93285154e-05 3.08001436e-05
      1.01368489e-04 4.15701768e-04 2.01345771e-04 -1.47119390e-05
      -7.51036760e-06 5.37000538e-04 1.00417633e-03 8.90736817e-04
      4.16412309e-04 3.52942909e-04 1.75635316e-04 0. 0. 0. 0. 0.
      2.41028483e-05 3.82124454e-05 2.57319516e-05 3.81783320e-05
      2.12072948e-04 2.27657001e-04 1.02662787e-04 -2.76331339e-05
      1.73017150e-04 2.35603948e-04 6.31987641e-04 8.08657147e-04
      1.83925382e-04 1.18153635e-04 4.28665880e-05 -1.01788273e-05 0. 0.
      0. 0. 3.56795463e-05 5.12013430e-05 2.42846581e-05 -1.02084166e-04
      6.49392969e-05 -5.54529761e-05 -7.36810689e-05 -2.26253542e-04
      -3.03703884e-04 -9.36365686e-05 4.83647047e-04 5.59704204e-04
      1.46065271e-04 5.98785700e-05 -1.20258665e-04 -3.05364811e-05 0.
      0. 0. 0. 3.47496498e-05 1.36731207e-04 3.50310825e-06
      -5.26047515e-05 -3.25545116e-05 -2.17867695e-04 -1.90770807e-04
      -4.54601424e-04 -7.03628932e-04 -3.34967073e-04 2.55252380e-04
      3.02435918e-04 1.08577136e-04 8.22599250e-05 -1.29897526e-04
      -2.18117725e-06 0. 0. 0. 1.46158727e-05 1.96531055e-05
      1.72722066e-04 2.53287089e-05 -4.52888744e-05 -1.23135149e-04
      -4.14700880e-05 -8.83877874e-05 -6.92736881e-04 -7.49429804e-04
      -2.25050331e-04 -1.70068834e-05 6.80495077e-06 4.91018945e-05
      3.52421375e-05 1.43027582e-05 0. 0. 0. 0. 3.02757362e-05
      7.05065258e-06 1.93602566e-04 8.34280218e-05 -1.33745212e-04
      -1.37611481e-04 8.33085433e-05 -3.11215495e-04 -6.12936856e-04
      -3.40297614e-04 8.92598691e-05 2.20152433e-04 -2.65590905e-04
      -1.83538825e-04 -9.14306656e-05 5.99435261e-05 0. 0. 0. 0.
      1.36802714e-06 6.65184343e-05 2.61774549e-04 -1.65510864e-05
      -2.32650389e-04 -1.02998005e-04 2.48532087e-05 -4.97901696e-04
      -6.34694006e-04 -3.65060667e-04 3.08603485e-05 -9.60376128e-05
      -3.18872335e-04 -1.12529269e-05 -1.59268966e-05 4.65523590e-05 0.
      0. 0. 0. 7.05901994e-06 8.01490169e-05 3.96986405e-04
      6.16949255e-05 -1.55693735e-04 -2.37410815e-04 -1.36267816e-04
      -2.20834743e-04 -2.90357508e-04 2.67208434e-05 -1.13140319e-04
      -4.16822179e-04 -1.96118621e-04 6.06496142e-05 1.37055113e-05
      1.16766741e-05 0. 0. 0. 0. 1.03422853e-05 6.01637403e-05
      3.92956805e-04 3.01697088e-04 -1.90141902e-04 -1.49274885e-04
      -2.17481604e-04 -5.45361036e-05 -2.22355768e-04 -9.36536089e-05
      -8.58344138e-05 -1.59535673e-04 -1.81752184e-04 4.65531884e-05
      2.18640780e-05 2.00737622e-06 0. 0. 0. 0. 1.16008705e-05
      5.18106426e-05 2.65155017e-04 4.23119607e-04 3.40426777e-04
      3.00412008e-04 -7.47013110e-05 -9.03134787e-05 4.57278475e-05
      1.25909792e-04 -2.99257063e-05 -9.27172296e-05 -8.63046807e-06
      7.57650341e-05 7.66908761e-06 0. 0. 0. 0. 0. 5.30794523e-06
      2.42542446e-05 1.05436862e-04 1.68890663e-04 3.11597076e-04
      5.52779704e-04 9.64447681e-04 8.88933137e-04 6.30747643e-04
      2.28611927e-04 5.01804861e-05 2.70154069e-05 2.52397585e-05
      3.04577884e-06 0. 0. 0. 0. 0. 0. 0. 0. 8.77518414e-06
      9.11269126e-06 1.07378855e-05 4.69710103e-05 1.42355973e-04
      1.26963234e-04 7.22432742e-05 3.82214457e-05 8.91144919e-06
      4.45000433e-06 3.02007322e-07 0. 0. 0. 0. 0. 0. 0. 0. 0. 0. 0. 0.
      0. 0. 0. 0. 0. 0. 0. 0. 0. 0. 0. 0. 0. 0. 0. 0. 0. 0. 0. 0. 0. 0.
      0. 0. 0. 0. 0. 0. 0. 0. 0. 0. 0.</_>
    <_>
      0. 0. 0. 0. 0. 0. 0. 0. 0. 0. 0. 0. 0. 0. 0. 0. 0. 0. 0. 0. 0. 0.
      0. 0. 0. 0. 0. 0. 0. 0. 0. 0. 0. 0. 0. 0. 0. 0. 0. 0. 0. 0. 0. 0.
      0. 0. 0. 0. 2.35804379e-07 7.45531543e-06 3.95933421e-05
      3.45709086e-05 3.30503499e-05 9.07329086e-05 1.10325826e-04
      2.15005966e-05 6.67400946e-06 4.61248692e-06 0. 0. 0. 0. 0. 0. 0.
      0. 1.57500490e-05 4.07768384e-05 5.76454695e-05 2.02317940e-04
      4.34668706e-04 4.40459815e-04 3.52434232e-04 3.98350181e-04
      4.49632527e-04 2.16652261e-04 5.89471820e-05 3.96488795e-05 0. 0.
      0. 0. 8.15912642e-07 -1.13649694e-05 -9.09841183e-05
      -3.51527233e-05 3.71704336e-05 2.15064574e-04 3.71773611e-04
      4.78104485e-04 4.67184058e-04 3.24391993e-04 5.19706984e-04
      2.93153425e-04 1.21930709e-04 -1.95050452e-05 1.83293942e-05
      4.15115173e-05 0. 0. 0. 0. 0. -2.82780675e-05 -1.22958343e-04
      -1.50712352e-04 -1.66200669e-04 1.21895835e-04 1.70858460e-04
      3.66613298e-04 5.45833318e-05 2.34158782e-04 3.65011394e-04
      3.28838272e-04 -7.78384419e-05 3.40121187e-06 5.38902095e-05
      3.55076991e-05 0. 0. 0. 0. -8.71834254e-06 -1.37943658e-04
      -1.89697297e-04 -3.41913721e-04 -2.76707113e-04 -2.36032483e-05
      9.16879508e-05 3.63882602e-04 -1.06974931e-05 -5.16250548e-05
      -1.58445226e-04 1.13554386e-04 -2.62283575e-04 -2.78066473e-05
      1.03604347e-04 2.88022093e-05 0. 0. 0. 0. -9.69589819e-05
      -2.98822619e-04 -2.86252354e-04 -3.92773421e-04 -1.05293184e-04
      -5.24461102e-05 2.26939388e-04 1.83691751e-04 3.18826642e-05
      -1.43366327e-04 -4.96394059e-04 -2.77643645e-04 -3.72846349e-04
      -2.36125270e-04 9.91341294e-05 1.21837966e-05 0. 0. 0. 0.
      -1.46749429e-04 -2.15036169e-04 -2.40389039e-04 -2.60252564e-04
      1.75288500e-04 1.02659928e-04 2.43481976e-04 -4.06072559e-06
      -1.02493330e-04 -3.09116935e-04 -8.93616176e-04 -2.22701405e-04
      -1.32672401e-04 -1.25453982e-04 1.50367210e-04 2.33924457e-05 0.
      0. 0. 0. -9.27239817e-05 -9.96960734e-05 -8.20060013e-05
      -1.69390201e-04 1.60053940e-04 3.10453906e-04 7.71714913e-05
      4.31006301e-05 -1.02737853e-04 -6.56958029e-04 -4.84588032e-04
      5.17724811e-06 -1.95395423e-05 1.30971413e-04 1.70237428e-04
      5.13742161e-05 0. 0. 0. 0. 3.26182908e-06 -6.91380774e-05
      -2.56708823e-04 -2.56419844e-06 1.99419330e-04 5.93535951e-04
      3.39839520e-04 1.07717366e-04 -4.14544571e-04 -6.02959422e-04
      -1.58487965e-04 1.66516656e-05 -3.45242552e-06 3.92642425e-04
      1.83156924e-04 6.02484906e-05 0. 0. 0. 0. -2.58578038e-05
      -3.09103518e-04 -7.66773956e-05 5.69473341e-05 1.89741550e-04
      7.21312419e-04 9.82336351e-05 -4.84111777e-04 -5.69263648e-04
      -4.69982828e-04 -3.83240695e-04 -1.52385444e-04 3.57768768e-05
      4.33954468e-04 9.76777665e-05 7.24473066e-05 0. 0. 0. 0.
      -5.64897164e-05 -1.43987898e-04 2.23085135e-05 3.70134258e-05
      3.99999670e-04 3.49722890e-04 -2.57849781e-04 -4.00795310e-04
      -4.96908382e-04 -6.05282316e-04 -2.03507632e-04 -5.58144056e-05
      2.17628229e-04 4.04776423e-04 1.41155295e-04 6.53404713e-05 0. 0.
      0. 0. 1.61854303e-04 1.53741741e-04 1.75200228e-04 6.01918786e-04
      6.55536074e-04 2.09215534e-04 -8.06880223e-07 -4.66757301e-05
      -6.33198710e-04 -2.69300508e-04 1.60300580e-04 1.95934816e-04
      2.40535432e-04 3.87834676e-04 1.75720415e-04 3.98090560e-05 0. 0.
      0. 0. 3.33913602e-04 1.92236010e-04 1.84990262e-04 7.59277202e-04
      3.57278012e-04 3.57746525e-04 2.44481053e-04 -2.46133714e-04
      -3.66905209e-04 2.38520093e-04 4.07583226e-04 2.47788179e-04
      6.92508984e-05 4.06180712e-04 9.44379572e-05 6.73881232e-06 0. 0.
      0. 0. 3.74548603e-04 1.38111456e-04 2.12151004e-04 4.72267973e-04
      3.37065168e-04 6.73175266e-04 3.14788718e-04 -2.74787890e-05
      4.09986475e-04 2.62824033e-04 5.30493999e-05 8.45160903e-05
      3.04269372e-04 2.96926271e-04 9.64856554e-06 0. 0. 0. 0. 0.
      1.71373642e-04 1.55211921e-04 1.32654633e-04 -1.37137453e-04
      2.35496307e-04 4.87953279e-04 4.00202611e-04 2.01959556e-04
      -7.27772931e-05 -1.80345538e-04 7.46728401e-05 3.01974593e-04
      2.21700146e-04 4.18497366e-05 0. 0. 0. 0. 0. 0. 0. 5.17628505e-05
      2.71953049e-05 -3.49996175e-04 -2.70787161e-04 -2.48007360e-04
      -5.01051196e-04 -4.19283489e-04 -7.81767521e-05 9.11097886e-05
      -5.67019356e-07 3.05785397e-05 -4.47696366e-05 0. 0. 0. 0. 0. 0.
      0. 0. 0. -2.13782932e-05 -1.93584725e-04 -1.79497263e-04
      -3.64467734e-04 -4.81793977e-04 -3.54960008e-04 -1.49029176e-04
      -5.46154042e-05 -1.20964025e-04 -7.68539539e-05 -2.54012557e-05 0.
      0. 0. 0. 0. 0. 0. 0. 0. 0. 0. 0. 0. -6.91239984e-05
      -1.43229918e-04 -2.49095501e-05 -3.90110017e-06 -2.26202428e-05
      -1.88695049e-05 -5.80600135e-06 0. 0. 0. 0. 0.</_>
    <_>
      0. 0. 0. 0. 0. 0. 0. 0. 0. 0. 0. 0. 0. 0. 0. 0. 0. 0. 0. 0. 0. 0.
      0. 0. 0. 0. 0. 0. 0. 0. 0. 0. 0. 0. 0. 0. 0. 0. 0. 0. 0. 0. 0. 0.
      0. 0. 0. 1.16940919e-06 3.92814400e-05 4.01767575e-05
      4.38180223e-06 -2.80535860e-05 -1.35618666e-05 -1.61724965e-05
      4.36146365e-05 2.12605173e-05 -5.87208615e-06 -9.07676349e-06 0.
      0. 0. 0. 0. 0. 0. 0. -4.01635407e-05 -4.42162354e-06
      2.08908787e-05 -1.40138563e-05 1.93470282e-06 -5.61198649e-05
      -1.92977750e-04 8.28311167e-05 2.60141416e-04 2.20295420e-04
      -4.09327549e-05 -5.31054866e-05 0. 0. 0. 0. 0. 0. 0.
      -1.78113653e-04 -3.79112375e-04 -2.38125969e-04 -9.58335295e-05
      -2.83285539e-04 3.28538772e-05 1.05839747e-04 -3.12185148e-06
      1.00329898e-05 -2.46692798e-05 2.53076414e-05 -3.72752766e-05
      -6.34272192e-06 0. 0. 0. 0. 0. 0. -7.95849064e-06 -1.67561695e-04
      -3.99513257e-04 -2.48996192e-04 -2.45588861e-04 1.71017964e-04
      1.23439735e-04 -9.86935338e-05 3.52606032e-04 2.82806344e-04
      -1.34960414e-04 -3.07331560e-04 -5.40106848e-05 2.68993472e-06 0.
      0. 0. 0. 0. 0. -2.58851233e-05 -1.61778837e-04 -4.53862216e-04
      -2.32497696e-04 2.96898270e-05 -8.30432109e-05 -3.32796276e-06
      3.48919421e-05 2.14169631e-04 3.73406103e-04 -2.11991632e-04
      -1.06480838e-04 -4.47677448e-05 -2.58547534e-05 -2.03145009e-06 0.
      0. 0. 0. 1.54953286e-05 -6.56580960e-05 -1.73521796e-04
      -1.71304651e-04 2.65649665e-04 3.27437912e-04 -5.12804982e-05
      6.51125665e-05 8.51513905e-05 2.55593131e-05 2.10112732e-04
      -1.27660125e-04 4.20813594e-05 1.31790235e-04 2.12333653e-05
      -8.37101197e-06 0. 0. 0. 0. 7.42567863e-05 4.93634288e-05
      -1.63832257e-04 4.86490680e-05 5.87769086e-04 1.19966062e-04
      -2.08060912e-04 -1.45142447e-04 -6.52831339e-04 -2.92989396e-04
      4.17201460e-04 -3.88426379e-05 3.13781638e-05 1.54268229e-04
      1.02440412e-04 -2.29357261e-06 0. 0. 0. 0. 1.03315557e-04
      1.86898920e-04 8.72397686e-06 1.12109738e-04 1.75909503e-04
      -1.17017720e-04 -4.33142734e-04 -7.33194058e-04 -1.14900572e-03
      -9.04189001e-05 2.67564232e-04 -1.71177235e-05 2.17715511e-04
      2.24028438e-04 9.11036113e-05 -6.01342872e-05 0. 0. 0. 0.
      1.10998604e-04 3.62842111e-04 2.19919937e-04 7.27378647e-05
      -1.28573956e-04 -3.38685495e-04 -5.88053663e-04 -1.25150441e-03
      -1.29865785e-03 -2.31410930e-04 2.92945449e-04 2.86842085e-04
      1.79928102e-04 -7.32171102e-05 -1.37583513e-04 -1.95436442e-05 0.
      0. 0. 1.88635954e-06 1.31240682e-04 3.41296342e-04 2.00524039e-04
      1.97060697e-04 -1.26748666e-04 -3.46632296e-04 -7.88670848e-04
      -1.17042160e-03 -1.08678115e-03 -1.79524010e-04 3.10678472e-04
      2.56584812e-04 2.60983681e-04 1.10480451e-05 4.88972946e-05 0. 0.
      0. 0. 6.41362249e-06 1.17553347e-04 2.09251943e-04 2.40268477e-04
      1.74360306e-04 -2.74803810e-04 -2.84474634e-04 -6.51627313e-04
      -7.63956108e-04 -5.99654857e-04 1.47149025e-04 6.45197870e-05
      8.70899166e-05 6.12608099e-04 2.51830788e-04 1.56782393e-04 0. 0.
      0. 0. 6.03635044e-06 9.24768974e-05 9.08729635e-05 2.99567124e-04
      -5.85648486e-05 -2.74560764e-04 -2.33827464e-04 -3.77609569e-04
      -4.79500130e-04 -3.54840486e-05 6.03527005e-04 5.61694760e-05
      -3.05976282e-04 4.50867898e-04 3.02474102e-04 1.22717887e-04 0. 0.
      0. 0. 6.03635044e-06 7.18220908e-05 -3.30376097e-05 3.63297499e-04
      -1.96855486e-04 1.02656677e-05 -6.66739870e-05 -1.83865428e-04
      2.54549795e-05 6.99770229e-04 4.39900905e-04 -1.04185638e-04
      -3.26390291e-04 1.64353027e-04 2.13182997e-04 4.02790429e-05 0. 0.
      0. 0. 0. 1.72503132e-05 5.86518036e-05 2.79927248e-04
      3.35135587e-06 3.51662638e-05 1.56206283e-04 2.52312457e-04
      3.05730704e-04 5.14270097e-04 -1.89252809e-04 -3.40027837e-05
      2.04821685e-04 -7.82259917e-07 3.12373049e-05 0. 0. 0. 0. 0. 0.
      2.20585716e-05 1.13557253e-04 -8.83409812e-05 2.26380333e-04
      1.93623287e-04 -1.29531880e-04 5.17094159e-05 -8.34693346e-05
      -1.71545966e-04 6.16491379e-05 1.71952430e-04 -7.79613547e-05
      -2.58160057e-04 -5.28189485e-05 0. 0. 0. 0. 0. 0. 1.24173181e-04
      2.45398289e-04 6.69571018e-05 -2.18457644e-05 2.05920383e-04
      6.01762949e-05 -2.90296884e-04 -5.00559981e-04 -3.69338435e-04
      -2.81329965e-04 -1.82421601e-04 -2.31469181e-04 -7.42766424e-05 0.
      0. 0. 0. 0. 0. 0. 0. 0. 0. 0. 0. -4.78426846e-05 -1.40214208e-04
      -1.15985727e-04 0. 0. 0. 0. 0. 0. 0. 0. 0. 0. 0. 0. 0. 0. 0. 0. 0.
      0. 0. 0. 0. 0. 0. 0. 0. 0. 0. 0. 0.</_>
    <_>
      0. 0. 0. 0. 0. 0. 0. 0. 0. 0. 0. 0. 0. 0. 0. 0. 0. 0. 0. 0. 0. 0.
      0. 0. 0. 0. 0. 0. 0. 0. 0. 0. 0. 0. 0. 0. 0. 0. 0. 0. 0. 0. 0. 0.
      0. 0. 0. 4.46860469e-07 1.64515914e-05 -2.51183665e-05
      -3.69168010e-05 -7.97832108e-05 3.40712686e-05 1.55282993e-04
      1.48917446e-04 1.56013502e-05 0. 3.36385853e-07 0. 0. 0. 0. 0. 0.
      0. 0. 9.63074399e-06 8.53125312e-05 -1.51802771e-04
      -4.27307677e-05 2.68372009e-04 1.31002816e-04 9.86956820e-06
      4.04856895e-04 3.52445320e-04 1.22727462e-04 3.06111142e-05
      2.01831517e-06 0. 0. 0. 0. 1.38624330e-06 1.24761900e-05
      2.77248660e-06 2.06623245e-05 8.02166105e-05 3.95826246e-05
      -2.42166119e-04 2.99636711e-04 7.01700628e-04 7.02294172e-04
      2.22823190e-04 5.79835287e-05 1.05462750e-04 7.37239316e-05
      2.55274172e-05 2.06843515e-06 0. 0. 0. 0. 0. 1.38624330e-06
      -2.33592164e-06 -7.00443197e-05 -9.36863580e-05 -5.29579236e-04
      -4.36439732e-05 4.92734602e-04 4.98994668e-05 2.01410876e-04
      5.77269180e-04 5.25834854e-04 -2.42824884e-04 -1.62116339e-04
      -4.26184561e-05 1.68192928e-05 0. 0. 0. 0. 0. 4.37761082e-06
      -9.92876739e-05 -1.45978105e-04 -1.63320365e-04 -3.20399937e-04
      5.64741786e-05 1.60271884e-04 1.59311559e-04 2.88227340e-04
      4.55453090e-04 2.82165245e-04 -6.77714124e-04 -1.83025200e-04
      -5.93987425e-05 3.86843749e-05 0. 0. 0. 0. 0. -1.11018198e-05
      -1.29747568e-04 -4.17317970e-05 1.75203953e-04 -2.40033274e-04
      -2.70145043e-04 1.24672370e-05 2.09925114e-04 4.55593428e-04
      7.79904951e-07 -1.34822083e-04 -4.35186521e-04 -1.04159080e-04
      1.00007048e-04 4.82930591e-05 0. 0. 0. 0. 0. -1.92524499e-06
      -1.08976514e-04 -1.47000013e-04 1.37673531e-04 2.09006394e-04
      -9.88549727e-05 -4.86428180e-04 -6.45870867e-04 -8.14199157e-04
      -8.63322115e-04 -4.35122551e-04 -1.05491286e-04 1.14144983e-04
      2.04971017e-04 5.41843583e-05 0. 0. 0. 0. 0. 1.35503142e-05
      -1.80920208e-04 -2.48820696e-04 2.69800774e-04 5.33517043e-04
      4.67138801e-04 -2.25285956e-04 -6.50532893e-04 -9.56078118e-04
      -4.97954083e-04 -3.39953549e-04 -2.20769682e-04 1.81345356e-04
      1.75240508e-04 5.21945294e-05 0. 0. 0. 0. 0. -1.13440456e-05
      -1.55675560e-04 -1.37255192e-04 -1.31703258e-04 5.53385180e-04
      1.11423789e-04 -4.07824438e-04 -6.87905529e-04 -9.01179039e-04
      -3.79541190e-04 -1.63410936e-04 -3.66468943e-04 4.91415383e-04
      1.87428683e-04 5.42455236e-05 0. 0. 0. 0. 0. -7.66747326e-06
      1.22332814e-04 5.30091675e-05 -3.06451198e-04 1.60368174e-04
      -2.95040845e-05 -6.33804826e-04 -9.20662016e-04 -7.66524812e-04
      -3.07928975e-04 2.15106047e-04 -1.67476115e-04 5.57376712e-04
      1.06738684e-04 5.57748426e-05 0. 0. 0. 0. 2.43290760e-05
      1.62575423e-04 2.71548692e-04 1.84881210e-04 -1.35203343e-04
      3.60021921e-04 -9.39222882e-05 -7.95762462e-04 -9.03732784e-04
      -5.97404782e-04 -1.42639532e-04 4.34424990e-04 -2.26494958e-05
      4.56530281e-04 1.27777719e-04 5.32015038e-05 0. 0. 0. 0.
      1.25538034e-04 2.23744762e-04 2.46461714e-04 4.98426147e-04
      1.73379914e-04 3.61883634e-04 3.28968279e-04 -7.04649356e-05
      -4.60729119e-04 -2.63592694e-04 1.77470487e-04 2.02966752e-04
      -2.35355517e-04 3.98054137e-04 1.49390602e-04 3.58560355e-05 0. 0.
      0. 0. 1.83927827e-04 1.07818247e-04 2.13797553e-04 6.37801248e-04
      2.32499937e-04 4.79328708e-04 3.27149464e-04 2.72006640e-04
      3.96110227e-05 1.73896085e-04 2.55947205e-04 -2.80348060e-04
      -1.38292176e-04 4.03773738e-04 4.59416769e-05 7.88877151e-06 0. 0.
      0. 0. 2.06310579e-04 7.32253829e-05 1.54646827e-04 5.57748135e-04
      7.17679213e-04 6.07323309e-04 1.68739949e-04 -1.88253216e-05
      2.99924490e-04 1.36616465e-04 -1.16584677e-04 -2.70194840e-04
      1.79917668e-04 1.99087910e-04 -2.61347595e-05 0. 0. 0. 0. 0.
      9.43968189e-05 6.78214637e-05 4.65266239e-05 1.48880907e-04
      4.35194059e-04 4.84401418e-04 5.52001991e-04 4.01756726e-04
      1.18305863e-04 -1.46230246e-04 -6.81669508e-06 7.27270526e-05
      -1.68848383e-05 -3.63342988e-05 -3.83846600e-05 0. 0. 0. 0. 0. 0.
      5.45291005e-06 1.20284776e-05 1.06919806e-05 -9.73196366e-05
      -2.91389530e-04 -1.67543447e-04 -3.77990873e-05 2.27774399e-05
      -1.76045414e-05 -9.24563938e-05 -8.18822591e-05 -2.37517525e-04
      -1.13669332e-04 -8.34449111e-06 -4.35149150e-06 0. 0. 0. 0. 0. 0.
      0. 0. -1.36666829e-04 -3.71981499e-04 -3.44898261e-04
      -3.07043665e-04 -1.91994230e-04 -1.28134663e-04 -1.11403569e-04
      -5.94263911e-05 -9.69464454e-05 -4.74839726e-05 0. -1.46862831e-05
      0. 0. 0. 0. 0. 0. 0. 0. -2.79759515e-05 -7.04993945e-05
      -1.80384250e-05 -7.90630656e-06 -2.50366384e-06 -1.57539068e-06
      -5.77643232e-06 0. 0. 0. 0. 0. 0. 0.</_>
    <_>
      0. 0. 0. 0. 0. 0. 0. 0. 0. 0. 0. -2.53142498e-05 -8.66013761e-06
      0. 0. 0. 0. 0. 0. 0. 0. 0. 0. 0. 0. 0. 0. 0. 0. 0. 0.
      -1.08584805e-04 -5.52916499e-05 0. 0. 0. 0. 0. 0. 0. 0. 0. 0. 0.
      0. 0. -1.54956269e-05 -1.13240625e-04 -1.25422215e-04
      -3.20417195e-04 -3.71286442e-04 -6.80452940e-05 -2.42908398e-04
      -8.84148612e-05 -7.48214443e-05 -1.05332787e-04 -1.07172898e-04 0.
      0. 0. 0. 0. 0. 0. -1.90995615e-06 -6.70496302e-05 -3.14972072e-04
      -6.58951234e-04 -4.88629274e-04 -9.24951630e-04 -8.27346637e-04
      2.14547268e-04 2.58774118e-04 7.45642610e-05 3.27469257e-04
      2.63586029e-04 -9.15145501e-05 0. 0. 0. 0. 0. 0. 0.
      -6.06442773e-05 -2.94648897e-04 -9.25825560e-04 -8.69465293e-04
      -5.06978831e-04 -4.57356975e-04 -1.03078352e-03 -4.35246853e-04
      1.23690959e-04 6.45544031e-04 4.56010137e-04 1.32655608e-04
      -7.82923162e-05 0. 0. 0. 0. 0. 0. -1.90700273e-04 -6.18142600e-04
      -9.35589778e-04 -1.07581320e-03 -1.02338183e-03 -4.40086675e-04
      2.20249567e-04 2.59814784e-04 2.04104072e-04 2.24608753e-04
      8.67386581e-04 1.11782145e-04 -2.00417009e-04 -2.70533528e-05 0.
      0. 0. 0. 0. 0. -2.31472135e-04 -6.60378311e-04 -6.53632102e-04
      -2.80933396e-04 -5.61696334e-06 2.44197843e-04 6.55942888e-04
      6.80041034e-04 2.27125856e-05 -7.94871012e-05 5.06583252e-04
      -1.45300277e-04 -1.97578527e-04 -1.44980868e-05 -8.04450028e-05 0.
      0. 0. 0. 0. -2.92198438e-05 -1.62546203e-04 -1.20053432e-04
      -2.62512011e-04 -3.05183872e-04 -1.21980178e-04 1.20837486e-03
      1.51788245e-03 6.53746465e-05 -3.26160021e-04 2.43156392e-04
      -3.30050156e-04 -1.32005283e-04 -1.70616855e-04 -1.94056687e-04
      -2.28678691e-05 0. 0. 0. 0. -4.87650550e-06 5.78571126e-05
      4.55784466e-04 6.12661534e-04 6.11362047e-04 3.18273000e-04
      1.20298623e-03 1.69093499e-03 -1.61948759e-04 -5.83902409e-04
      -9.92839778e-05 -3.75773321e-04 -3.37367470e-04 -2.64042843e-04
      -3.06507893e-04 -1.43684098e-04 -7.62402306e-06 0. 0. 0. 0.
      3.57430181e-05 2.89518444e-04 3.36555328e-04 8.86075431e-05
      -7.99478221e-05 7.55498651e-04 1.55394548e-03 -8.07827200e-06
      -5.70091710e-04 -6.27691334e-04 -6.62158127e-04 -5.44932263e-04
      -4.55546484e-04 -3.36495403e-04 -1.13709320e-04 -9.74180784e-06 0.
      0. 0. 0. -5.44867362e-07 -1.51797212e-04 -4.22695157e-04
      -2.73183483e-04 -1.81817581e-04 3.39740567e-04 9.28625523e-04
      -4.41519078e-04 -2.25720854e-04 -8.27645476e-04 -5.33649640e-04
      -3.50641756e-04 -2.14988482e-04 -7.96482855e-05 -5.99292216e-05
      -1.35430219e-05 0. 0. 0. -1.08973472e-06 -1.48289939e-04
      -6.78504177e-04 -9.11663112e-04 -5.50741970e-04 -6.13066542e-04
      1.77080772e-04 3.07787617e-04 1.75243840e-04 -2.99457552e-05
      -4.00168239e-04 -3.46708053e-04 -2.35117725e-04 -1.98931419e-04
      -1.83790500e-04 -1.51681845e-04 -2.84403450e-05 0. 0. 0.
      -6.48080822e-05 -5.95165999e-04 -7.91703002e-04 -5.74353209e-04
      -6.14829769e-04 -9.23814136e-04 -2.53631533e-05 1.15304654e-04
      -7.43672863e-05 -5.48343698e-04 2.24596981e-04 1.69997264e-04
      -5.04675729e-04 -3.88588785e-04 -1.14840921e-04 -1.62516262e-05
      -6.77151093e-07 0. 0. 0. -1.64716053e-04 -6.01093867e-04
      -7.63775548e-04 -8.42463342e-04 -5.10225771e-04 -7.49331783e-04
      -5.16820932e-04 1.75658934e-04 -3.78816098e-04 -4.68624523e-04
      1.34777059e-04 1.67660808e-04 -9.45347070e-04 -1.16981124e-03
      -5.03131654e-04 0. 0. 0. 0. 0. -1.65674035e-04 -3.40975152e-04
      -2.47617601e-04 -5.51743258e-04 -4.57377871e-04 -2.79762724e-04
      -3.80775484e-04 9.47777240e-04 5.41848131e-04 -5.60630087e-06
      -2.28451172e-04 -7.82491814e-04 -7.91193510e-04 -6.27022819e-04
      -3.40272498e-04 0. 0. 0. 0. 0. -5.09851670e-05 7.67553320e-06
      2.86198920e-04 1.06358682e-04 -8.08191253e-05 2.84797046e-04
      -4.90481252e-05 1.65367283e-07 7.76821107e-05 -8.97618069e-04
      -1.52108853e-03 -6.08202594e-04 -2.92964047e-04 -5.25618743e-05 0.
      0. 0. 0. 0. 0. 0. 4.77298054e-05 1.32442714e-04 6.47971232e-04
      1.75087102e-04 -1.14981740e-04 -3.21279134e-04 -2.11202540e-04
      -1.26373881e-04 -3.15152429e-04 -5.54970466e-04 -2.12419225e-04
      -8.14957966e-05 -1.76670928e-05 0. 0. 0. 0. 0. 0. 0.
      3.67418829e-06 -5.09216661e-05 3.51219292e-04 8.02501745e-05
      -5.39535657e-04 -5.94142766e-04 -3.38230748e-04 -1.97022368e-04
      -2.28178775e-04 -1.45756334e-04 -1.03137631e-04 -1.03137631e-04
      -3.19917635e-05 0. 0. 0. 0. 0. 0. 0. 0. 0. 0. 0. 0. 0. 0. 0. 0. 0.
      0. 0. 0. 0. 0. 0. 0. 0. 0. 0. 0. 0. 0. 0. 0. 0. 0. 0. 0. 0. 0. 0.
      0. 0. 0. 0.</_>
    <_>
      0. 0. 0. 0. 0. 0. 0. 0. 0. 0. 0. 0. 0. 0. 0. 0. 0. 0. 0. 0. 0. 0.
      0. 0. 0. 0. 0. 0. 0. 0. 0. 0. 0. 0. 0. 0. 0. 0. 0. 0. 0. 0. 0. 0.
      -8.02467002e-06 -1.41387045e-05 -1.37565767e-05 -1.57884970e-05
      -1.43226353e-04 -3.10613483e-04 -3.88371933e-04 9.59016907e-05
      5.43715032e-05 1.39777576e-05 1.74721972e-05 0. 0. 0. 0. 0. 0. 0.
      -1.14638146e-06 -4.31803674e-05 -8.48322234e-05 -9.74424183e-05
      -1.31530673e-04 -2.09591653e-05 -1.58546041e-04 -3.71435919e-04
      -6.11041964e-04 -2.80416745e-04 -4.44187317e-05 1.65419930e-04
      3.15787882e-04 1.34867849e-04 3.85336716e-06 0. 0. 0. 0. 0.
      -3.05701701e-06 -4.70016384e-05 -1.11793008e-04 -1.15731840e-04
      -3.65235406e-04 -1.55946196e-04 1.28850239e-04 -7.10861350e-05
      -6.12792865e-05 1.22698129e-05 -1.84883611e-04 1.02248770e-04
      4.45519952e-04 3.43573774e-04 -3.61366729e-05 -1.05064228e-05 0.
      0. 0. 0. -2.46476975e-05 -9.92455316e-05 -2.05669843e-04
      -4.84223972e-04 -8.81734362e-04 -5.76392922e-04 -2.75314203e-04
      -3.40124330e-04 1.84789076e-06 2.25975717e-04 -3.77026503e-04
      -6.69141999e-04 -2.52525177e-04 1.85885059e-04 -1.08685883e-04
      -1.37391680e-05 0. 0. 0. 0. -2.21661539e-04 -3.49680806e-04
      -3.79176723e-04 -4.25880833e-04 -3.82152852e-04 -2.57611333e-04
      -1.46604216e-05 5.82743145e-04 7.68380356e-04 1.69189734e-04
      -5.19694178e-04 -7.12159672e-04 -3.47567664e-04 -1.90575884e-05
      -3.63683866e-05 0. 0. 0. 0. 0. -2.23181662e-04 -2.06351731e-04
      -6.80205412e-05 -8.40484063e-05 -1.79235503e-04 -3.35685269e-04
      -9.18226287e-05 7.22121506e-04 1.32702442e-03 3.95797069e-05
      -1.85142955e-04 -7.26189406e-04 -3.03716573e-04 -1.02764652e-05 0.
      0. 0. 0. 0. 0. 0. 0. 4.61938944e-05 2.24848205e-04 -2.10712114e-05
      -3.36715224e-04 -7.33418972e-04 -4.72397405e-05 7.13194138e-04
      1.79552124e-04 -6.47039487e-05 -3.35041521e-04 -2.34816369e-04
      -5.65730443e-06 0. 0. 0. 0. 0. 0. 0. 0. -1.43163397e-05
      3.61149650e-05 1.07839169e-05 -4.64000186e-04 -1.50177244e-03
      -8.44540773e-04 3.50916904e-04 5.80325257e-04 3.62310348e-05
      -3.03158158e-04 -2.28891397e-04 -9.69823577e-06 0. 0. 0. 0. 0. 0.
      0. -2.50537760e-05 -9.85165243e-05 -1.36919189e-04 -1.76608301e-04
      -4.00045334e-04 -4.79947834e-04 -8.38124688e-05 4.89178230e-04
      5.12382539e-04 -1.61678996e-04 -5.99061139e-04 -4.28739848e-04
      -5.81344430e-05 0. 0. 0. 0. 0. 0. -4.04093180e-06 -1.27693449e-04
      -1.70977830e-04 -1.62880227e-04 -1.70833548e-04 2.54955172e-04
      5.84769121e-04 1.14215259e-03 1.20240089e-03 9.35602293e-06
      -7.18984695e-04 -7.36224931e-04 -4.50042775e-04 -2.33283747e-04 0.
      0. 0. 0. 0. 0. -2.68020794e-05 -2.06186247e-04 -2.13950843e-04
      -4.55685338e-04 -1.70280837e-04 2.56869651e-04 8.01590621e-04
      9.20515798e-04 3.79199540e-04 -4.10003529e-04 -1.03077991e-03
      -6.53205905e-04 2.41318594e-05 -3.07407900e-04 -1.11353933e-04 0.
      0. 0. 0. 0. -2.33211922e-05 -1.90746374e-04 -2.14465123e-04
      -4.95652726e-04 -6.54429896e-04 5.19246387e-04 9.88476677e-04
      6.91298861e-04 3.01843917e-04 -2.72182806e-04 -1.74165951e-04
      3.82066246e-05 4.60906129e-04 -1.75298119e-04 -1.45912054e-04 0.
      0. 0. 0. 0. -9.43305167e-06 -1.12187161e-04 -1.34899688e-04
      4.82337418e-05 -5.45997522e-04 -9.40182581e-05 2.56615836e-04
      -6.19696730e-05 5.75714628e-04 2.26933014e-04 3.08915114e-05
      1.95565241e-04 7.36516222e-06 -2.71910190e-04 -8.22873189e-05 0.
      0. 0. 0. 0. -2.96844291e-06 -1.39846643e-05 1.05260413e-04
      4.73490305e-04 -1.11814981e-04 -2.10672952e-04 -1.96066976e-04
      -5.23546478e-04 -1.09460743e-04 -4.44699908e-05 -2.70975375e-04
      -8.01789574e-05 -3.89937399e-04 -2.14142550e-04 -3.24555585e-05 0.
      0. 0. 0. 0. 0. -2.77054664e-06 1.52679659e-05 4.11859655e-04
      3.33988952e-04 -4.22746787e-04 -3.78541852e-04 -7.43204320e-04
      -2.18294095e-04 2.80611450e-04 1.90919163e-04 2.16083965e-04
      -1.30776170e-04 -6.84971819e-05 -4.54851615e-05 -2.84282260e-06 0.
      0. 0. 0. 0. 0. -2.31768463e-05 -7.23583871e-05 2.91463803e-04
      3.61518942e-05 -6.44584361e-04 -6.86954067e-04 -6.27093308e-04
      9.37599107e-05 1.14027171e-04 3.60834129e-05 -3.71254755e-05
      -6.04099805e-05 -3.29293616e-05 0. 0. 0. 0. 0. 0. 0.
      -3.94988965e-05 -1.38182266e-04 -1.43383542e-04 -1.36220129e-04
      -2.38061330e-04 -3.05778114e-04 -1.75795270e-04 -2.52546215e-05
      -1.35034079e-05 -3.60090853e-05 -5.96992759e-05 -3.79043013e-05
      -8.52846824e-06 0. 0. 0. 0. 0. 0. 0. 0. 0. 0. 0. 0. 0. 0.
      -7.10705649e-07 -9.71297777e-06 -1.72938380e-05 -1.61093285e-05
      -4.73803766e-07 0. 0. 0. 0.</_>
    <_>
      0. 0. 0. 0. 0. 0. 0. 0. 0. 0. 0. 0. 0. 0. 0. 0. 0. 0. 0. 0. 0. 0.
      0. 0. 0. 0. 0. 0. 0. 0. 0. 0. 0. 0. 0. 0. 0. 0. 0. 0. 0. 0. 0. 0.
      0. 0. 0. 9.14345856e-06 8.80481184e-06 9.38084213e-06
      8.67881099e-05 2.17210414e-04 5.89186384e-05 6.70641214e-07 0. 0.
      0. 0. 0. 0. 0. 0. 0. 0. 0. -1.26090250e-04 -1.82130359e-04
      1.12499249e-04 2.50459998e-04 2.05083867e-04 4.70778468e-04
      5.71119017e-04 2.53878097e-04 2.14756903e-04 0. -9.33506544e-06
      -1.07353253e-05 0. 0. 0. 0. 0. 0. 0. 0. -4.41315875e-04
      -6.23446249e-04 4.18364725e-05 2.83811678e-04 4.72123589e-04
      4.72512271e-04 6.10045390e-04 2.27793396e-04 9.53402196e-04
      -9.57933371e-05 -1.21362522e-04 -1.02685717e-05 0. 0. 0. 0. 0. 0.
      0. -1.22483300e-06 -1.98741152e-04 -2.50074809e-04 -5.15820226e-04
      -2.84431560e-04 6.86314947e-04 5.35601575e-04 4.99293092e-05
      -1.07635366e-04 6.27663336e-04 -1.68387996e-04 -6.16140751e-05 0.
      0. 0. 0. 0. 0. 0. 0. -6.12416488e-06 -1.95973276e-04
      -2.03251664e-04 -8.16278625e-04 -3.08184855e-04 6.13664801e-04
      3.59859929e-04 -7.33269553e-05 5.30788966e-04 4.18304553e-04
      -1.59848394e-04 -9.07877256e-06 0. 0. 0. 0. 0. 0. 0. 0. 0.
      -7.97604371e-05 -5.66604547e-04 -9.76807671e-04 -1.82532298e-04
      1.13063288e-04 4.97805013e-05 4.12977795e-04 6.44837331e-04
      1.12959395e-04 -1.16930445e-04 -3.62412106e-06 0. 0. 0. 0. 0. 0.
      0. 0. 2.26492411e-05 1.50590407e-04 -7.27655890e-04
      -1.06798683e-03 -3.13493685e-04 -4.29331441e-04 4.70424304e-04
      4.90227656e-04 -4.51837754e-04 -9.41774124e-05 -5.28301243e-05 0.
      0. 0. 0. 0. 0. 0. 0. 0. 9.11615388e-08 -4.76528076e-05
      -8.85422400e-04 -1.39258394e-03 -1.11084280e-03 -4.77131223e-04
      7.08804757e-04 -2.00840615e-04 -1.19353109e-03 -1.35896335e-04
      -5.18634952e-05 -4.47957827e-05 -4.61021118e-05 -6.44288184e-06 0.
      0. 0. 0. 0. -2.94090278e-05 -2.32598672e-04 -3.63283267e-04
      -6.63038809e-04 -9.33851406e-04 -1.30093039e-03 -6.00997650e-04
      -2.57995649e-04 -8.79169325e-04 -1.03349611e-03 -2.00645562e-04
      -1.45606624e-04 -1.97609363e-04 -2.52545462e-04 -7.22187542e-05 0.
      0. 0. 0. 0. -8.28799821e-05 -2.94090278e-04 -3.73093848e-04
      -3.82719154e-04 -1.45336089e-04 1.40864926e-04 3.52982024e-04
      -3.65607528e-04 -5.23770868e-04 -4.43264493e-04 -4.55062982e-04
      -3.81292833e-04 -3.83620791e-04 -2.66018033e-04 -5.88180555e-05 0.
      0. 0. 0. 0. -1.16612446e-05 -8.70880613e-05 -2.12811021e-04
      8.00147754e-05 1.40891279e-04 3.05404275e-04 -3.89013963e-04
      -2.01489194e-04 -1.70587955e-04 -4.83435259e-04 -3.28884373e-04
      -2.02420459e-04 -9.03670225e-05 -2.27251567e-05 0. 1.26142877e-05
      2.04231328e-05 0. 0. -8.05360287e-06 -8.73815879e-05
      -9.46298314e-05 -5.55823608e-05 2.84594105e-04 6.70016569e-04
      4.20558463e-05 -3.06222733e-04 4.22222976e-04 8.09374615e-05
      1.01713464e-04 1.43776531e-04 2.08705329e-04 9.27540386e-05 0. 0.
      1.80204115e-05 6.84775659e-05 0. 0. -6.84556198e-06
      -4.75162560e-05 -1.12305065e-06 1.59367322e-04 2.57047068e-04
      4.23883379e-04 6.55013810e-06 4.68127721e-04 5.93168370e-04
      3.54681863e-04 9.86484374e-05 1.53001893e-04 1.83776589e-04
      5.93194418e-05 0. 0. 0. 9.61088608e-06 0. 0. 0. 0. 7.65760051e-05
      3.42231069e-04 4.23222460e-04 1.78396003e-04 3.43063904e-04
      2.57397478e-04 2.02112817e-04 6.35351695e-04 3.45762492e-05
      2.23497827e-05 1.07853532e-06 0. 0. 0. 0. 0. 0. 0. 0. 0.
      1.18638882e-05 1.25774401e-04 3.70503840e-04 -2.49797275e-04
      1.86029501e-04 -1.68944371e-05 7.77743917e-05 8.50216369e-04
      1.32575415e-05 3.72446884e-05 0. 0. 0. 0. 0. 0. 0. 0. 0. 0. 0.
      1.45023896e-05 5.17189561e-04 3.64940963e-04 8.79284053e-05
      -1.22355996e-04 -5.81756234e-04 1.71213149e-04 -1.24579237e-04
      -3.33079079e-05 0. 0. 0. 0. 0. 0. 0. 0. 0. 0. 0. 0.
      -5.89592992e-06 7.22941331e-05 7.76913730e-05 -7.45892385e-06
      -3.99052427e-04 -2.27497178e-04 0. 0. 0. 0. 0. 0. 0. 0. 0. 0. 0.
      0. 0. 0. 0. 0. 0. 0. 0. 0. 0. 0. 0. 0. 0. 0. 0. 0.</_>
    <_>
      0. 0. 0. 0. 0. 0. 0. 0. 0. 0. 0. 0. 0. 0. 0. 0. 0. 0. 0. 0. 0. 0.
      0. 0. 0. 0. 0. 0. 0. 0. 0. 0. 0. 0. 0. 0. 0. 0. 0. 0. 0. 0. 0. 0.
      0. 0. 0. 3.01206510e-05 2.54427014e-05 2.22156159e-05
      4.02896512e-05 3.88881774e-04 1.59670686e-04 -1.20987497e-05
      2.16013668e-05 -9.89818545e-06 -1.80369334e-05 -3.46465604e-05
      -1.98848829e-05 0. 0. 0. 0. 0. 0. 0. -6.59879015e-06
      2.01283256e-04 2.79311760e-04 -5.40491543e-04 -3.00851010e-04
      1.34752365e-04 2.77208688e-04 -5.41127156e-05 6.39570426e-05
      -1.89579805e-04 -3.29811563e-04 -2.62718793e-04 -9.58089804e-05 0.
      0. 0. 0. 0. 0. -6.29884516e-06 -6.03123008e-05 1.37423383e-04
      5.02860930e-05 -4.48444247e-04 4.42464589e-05 1.24072758e-04
      -3.23189597e-05 -3.33519100e-04 -1.54699970e-04 1.17740010e-05
      -1.61242395e-04 -1.24030688e-04 -1.76388367e-05 -4.80179381e-07 0.
      0. 0. -7.15270926e-06 -2.34885138e-05 -5.53384962e-05
      -7.67719539e-05 1.12159527e-04 -1.81162221e-04 -2.66972813e-04
      1.97441172e-04 -4.18095879e-05 8.52516168e-05 7.44300414e-05
      -1.43494763e-04 -2.74474791e-04 -6.24378037e-04 -4.64640267e-04
      -8.39790664e-05 -3.02512999e-05 0. 0. 0. -3.16268342e-05
      -8.80941152e-05 -1.22905796e-04 -1.43662721e-04 -6.55672193e-05
      -3.30468356e-05 1.65693680e-04 7.99084664e-05 4.74392815e-04
      9.53574636e-05 -2.50789541e-04 -5.46802534e-04 -9.24301043e-04
      -8.36089195e-04 -4.25598642e-04 -6.90421803e-05 -1.68062779e-05 0.
      0. 0. -2.33899082e-05 -8.27095209e-05 -7.16005961e-05
      -1.92174266e-04 -4.82690026e-04 -8.64940957e-05 -7.88486504e-05
      9.05000488e-05 3.89707857e-04 1.76453905e-04 -3.77873112e-05
      -1.87775964e-04 -3.16628051e-04 -2.36943990e-04 -9.85779625e-05
      -1.10544185e-07 0. 0. 0. 0. -3.94412273e-05 -4.05244828e-05
      3.59209022e-04 2.44183524e-04 -1.49227591e-04 -3.80202313e-04
      -4.64670884e-04 4.89033933e-04 2.71071069e-04 3.83117527e-04
      2.97172897e-04 -7.40116520e-05 -6.03676745e-05 -5.45463763e-06 0.
      0. 0. 0. 0. 0. -3.23082386e-05 -8.18571498e-05 7.91988787e-05
      -1.45759856e-04 -6.15330064e-04 -1.28587289e-03 1.58694980e-04
      1.40786998e-03 5.59861190e-04 9.78696553e-05 -7.48883103e-05
      -1.08738888e-04 -9.06308996e-05 -7.84628646e-05 -1.21680378e-05 0.
      0. 0. 0. 0. -4.19587514e-06 -2.27093060e-05 -1.01748134e-04
      -2.77620653e-04 -8.69000389e-04 -1.03778020e-03 6.70224079e-04
      1.74403831e-03 2.27822369e-04 -2.69647135e-04 -3.55054828e-04
      -3.01565131e-04 -5.12394035e-05 -9.18896694e-05 -7.21690521e-05 0.
      0. 0. 0. 0. 0. -1.18380194e-04 -1.30998305e-04 -9.77248710e-05
      -9.56582953e-05 -1.07174834e-04 9.07087349e-04 1.23665959e-03
      -4.45653510e-04 -7.40298769e-04 -1.63216217e-04 -3.51040420e-04
      -1.69964580e-04 -8.05607997e-05 -8.60154396e-05 0. 0. 0. 0. 0.
      -4.13193920e-05 -7.10266235e-04 -6.03000284e-04 -3.27805377e-04
      -2.14502012e-04 8.91408417e-05 5.35197381e-04 2.90551718e-04
      -8.02317518e-04 -8.45545728e-04 -6.44847569e-06 -1.52550565e-04
      -3.04400921e-04 -1.07287691e-04 -7.72041021e-05 1.20199393e-05
      1.94608547e-05 0. -7.11557295e-05 -1.07919521e-04 -3.35078686e-04
      -1.09804480e-03 -9.20964754e-04 -6.04665605e-04 3.61098182e-06
      3.29549366e-04 6.06068468e-04 4.45914367e-04 -2.90721335e-04
      -2.46588839e-04 2.42734735e-04 3.31777235e-04 1.79241779e-05
      -9.90226545e-05 -2.64340142e-05 1.71713418e-05 6.52511008e-05 0.
      -1.45869242e-04 -2.95296282e-04 -3.02627886e-04 -6.40672166e-04
      -2.59071821e-04 4.82565156e-05 4.68821236e-04 6.01396430e-04
      3.72396724e-04 8.66581337e-04 2.74906761e-05 1.68627448e-04
      1.74319692e-04 2.54713290e-04 7.84000295e-05 -1.93010255e-05 0. 0.
      9.15804867e-06 0. -4.74371518e-06 -3.83763945e-05 -2.10954473e-04
      -9.61777259e-05 6.06274756e-04 3.05447524e-04 -4.53897577e-04
      -8.72868754e-04 -8.75036116e-04 -4.15230956e-04 4.49371764e-05
      5.64617076e-05 -1.35444207e-04 -1.31921857e-04 -4.78921902e-05 0.
      0. 0. 0. 0. 0. 0. -2.51969159e-05 -3.09488169e-05 1.24530721e-04
      -2.16509274e-04 -1.03864598e-03 -7.92357314e-04 -6.93629845e-04
      3.80229380e-04 1.20099506e-03 4.18301293e-04 1.05917125e-05
      -6.09129602e-05 -1.19978004e-05 0. 0. 0. 0. 0. 0. 0.
      -1.00787668e-06 -1.69116738e-05 -4.74433764e-05 1.26033206e-04
      3.51296035e-06 -2.26747637e-04 -4.11754881e-04 -8.19875459e-06
      3.73115705e-04 -1.00501835e-04 -5.29252138e-05 -1.79967014e-06 0.
      0. 0. 0. 0. 0. 0. 0. 0. 0. -3.60717604e-06 -3.59300175e-05
      -2.24593517e-04 -2.76144972e-04 -2.27671699e-04 -2.43110062e-05
      -1.38128944e-05 -6.42830855e-05 -1.38128944e-05 0. 0. 0. 0. 0. 0.
      0. 0. 0. 0. 0. 0. 0. 0. -7.20269054e-06 -2.40089685e-06 0. 0. 0.
      0. 0. 0. 0. 0. 0. 0.</_>
    <_>
      0. 0. 0. 0. 0. 0. 0. 0. 0. 0. 0. 0. 0. 0. 0. 0. 0. 0. 0. 0. 0. 0.
      0. 0. 0. 0. 0. 0. 0. 0. -2.55260966e-05 -8.33493905e-05
      -2.12434345e-04 -2.47293268e-04 -4.30628461e-05 0. 0. 0. 0. 0. 0.
      0. 0. 0. 0. 0. 0. 0. -5.42288217e-06 1.13926304e-04 1.46640581e-04
      -1.89593757e-05 -6.19612343e-04 -5.02936775e-04 -7.92103529e-05
      -1.26339000e-04 -1.18227443e-04 -2.68698727e-06 0. 0. 0. 0. 0. 0.
      0. 0. 0. -2.07859966e-06 1.24142214e-04 2.47985998e-04
      5.30353223e-04 -1.98336696e-04 -5.35877247e-04 -4.14966853e-05
      -5.34439714e-05 -1.74499946e-04 -7.52356427e-05 0. 0. 0. 0. 0. 0.
      0. 0. 0. 0. 1.32315166e-04 2.15020977e-04 3.44733126e-04
      3.34242766e-04 1.17682339e-05 1.59122705e-04 4.14625829e-04
      -1.80185289e-05 -1.46765979e-05 0. 0. 0. 0. 0. 0. 0. 0. 0. 0.
      1.26590254e-04 3.26243113e-04 7.32278713e-05 5.88749826e-04
      1.55369344e-04 1.47846105e-04 6.96561528e-06 2.34313979e-04
      -3.58264992e-06 0. 0. 0. 0. 0. 0. 0. 0. 0. 0. -3.21340158e-05
      1.00512239e-04 1.87191778e-04 -2.83289792e-05 4.76006797e-04
      2.39013476e-04 5.71578392e-04 4.69784340e-04 2.01616771e-04
      -6.93249240e-05 -1.27095700e-05 0. 0. 0. 0. 0. 0. 0. 0.
      -2.28198096e-05 -9.74306458e-05 -1.27153631e-04 -2.33209823e-04
      3.42217281e-05 1.42329664e-04 5.74191625e-04 1.61551288e-03
      1.01509981e-03 -2.07576566e-04 -3.04525223e-04 -2.63677852e-04
      -8.56375482e-05 -1.76969952e-05 0. 0. 0. 0. 0. -1.39713120e-06
      -3.83661391e-05 1.99607559e-04 2.36415333e-04 -2.92996065e-05
      -2.06215613e-04 -1.98849390e-04 6.60139078e-04 1.19892252e-03
      3.38783342e-04 -4.15337883e-04 -2.40061898e-04 -2.45617382e-04
      -1.21779369e-04 -8.24307353e-05 0. 0. 0. 0. 0. -4.33110654e-05
      -6.19798375e-05 5.77585524e-05 3.73235730e-06 -5.80882595e-04
      -6.51750073e-04 5.11113903e-05 7.45004334e-04 4.81158437e-04
      -4.76374989e-04 -3.34753888e-04 -1.50584092e-04 -2.34529914e-04
      -1.27279287e-04 -8.80192601e-05 0. 0. 0. 0. 0. -5.68166652e-05
      -4.65710400e-05 -1.48342617e-04 -4.52887907e-04 -6.18305407e-04
      -6.10269381e-05 3.69485992e-04 5.80695982e-04 4.25188220e-04
      -4.94473381e-04 -6.51151524e-04 -2.79136613e-04 -3.41787701e-04
      -1.92583029e-04 -3.67911198e-05 0. 0. 0. 0. 0. -5.07624318e-05
      -7.93690124e-05 -2.15346881e-04 -3.77831573e-04 -3.22105683e-04
      -1.87330064e-04 2.48447846e-04 4.47108334e-07 -4.96397952e-05
      -3.73814546e-04 -6.42849074e-04 -4.65272198e-04 -4.11780231e-04
      -1.30592627e-04 -4.65710400e-06 0. 0. 0. 0. 0. -1.16427600e-05
      -1.41061595e-04 -4.11177345e-04 -2.07961188e-04 -1.10240397e-03
      -7.55669142e-04 -2.40930880e-04 -1.75469875e-04 -6.58160425e-04
      -6.63915300e-04 -2.74821883e-04 -3.21031752e-04 -3.09873285e-04
      -1.60211275e-05 0. 4.22278390e-06 6.83688813e-06 0. 0. 0. 0.
      -7.05776911e-05 -4.16824274e-04 -8.64665664e-04 -1.36202341e-03
      -9.14178498e-04 -8.53343154e-05 3.50098358e-04 -6.98086282e-04
      -3.86731583e-04 7.01406680e-05 3.88367858e-04 9.26404682e-05
      -6.72488170e-07 0. 6.03254830e-06 2.29236830e-05 0. 0. 0. 0.
      -3.21744374e-05 -4.49401377e-05 -1.51000597e-04 -4.81303141e-04
      -5.84142515e-04 -3.58247489e-04 -1.12467242e-04 -8.16237065e-04
      -3.98629491e-05 2.65264680e-04 3.26111127e-04 9.98923133e-05 0. 0.
      0. 3.21735911e-06 0. 0. 0. 0. 6.67805871e-05 2.51569960e-04
      2.76021136e-04 6.33843709e-04 -5.24415344e-04 -8.77214537e-04
      -4.43349942e-04 -4.03689512e-04 -7.58411479e-05 -1.47722851e-04
      -1.69917676e-05 0. 0. 0. 0. 0. 0. 0. 0. 0. 1.64841549e-05
      1.23403355e-04 3.65260166e-05 3.79966863e-04 3.87730863e-04
      -7.01826531e-04 -1.24922226e-04 8.94751167e-04 1.84174409e-04
      -5.53132031e-06 -1.16157048e-06 0. 0. 0. 0. 0. 0. 0. 0. 0. 0. 0.
      0. 9.45852207e-06 8.31444413e-05 -4.29974571e-05 1.20711185e-04
      4.83147043e-04 7.78418325e-05 0. 0. 0. 0. 0. 0. 0. 0. 0. 0. 0. 0.
      0. 0. 0. 0. 0. 0. 0. 0. 0. 0. 0. 0. 0. 0. 0. 0. 0. 0. 0. 0. 0. 0.
      0. 0. 0. 0. 0. 0. 0. 0. 0. 0. 0. 0. 0.</_>
    <_>
      0. 0. 0. 0. 0. 0. 0. 0. 0. 0. 0. 0. 0. 0. 0. 0. 0. 0. 0. 0. 0. 0.
      0. 0. 0. 0. 0. 0. 0. 0. 0. 0. 0. 0. 0. 0. 0. 0. 0. 0. 0. 0. 0. 0.
      0. 0. 0. 2.42248789e-05 2.33276605e-05 4.98768313e-05
      2.18111993e-04 3.61148414e-04 1.36069866e-04 7.91607181e-06
      2.44078874e-05 5.27738121e-06 0. 0. 0. 0. 0. 0. 0. 0. 0.
      -3.21272069e-06 -2.46308591e-05 1.81243435e-04 3.89844208e-04
      3.87807318e-04 7.72308151e-04 1.25714310e-03 1.10440433e-03
      4.71783045e-04 4.30431537e-04 1.46376551e-04 2.91938522e-06 0. 0.
      0. 0. 0. 0. 0. 0. -2.38037901e-05 -8.07748438e-05 -5.29377314e-04
      -3.81421269e-04 -3.43547290e-04 -2.01292642e-05 3.42929037e-04
      4.88378573e-04 1.21927389e-03 7.14764872e-04 2.98416649e-04
      2.54980914e-05 0. 0. 0. 0. 0. 0. 0. -4.96678440e-05
      -2.69372773e-04 -4.60055366e-04 -1.45233842e-03 -1.54458068e-03
      -1.33655639e-03 -1.45265972e-03 -1.06532779e-03 -5.32275124e-04
      1.65110978e-04 1.22473080e-04 1.06466789e-04 1.31511188e-05 0. 0.
      0. -2.77924555e-05 -4.55345471e-05 -3.07033515e-05 -2.08067999e-04
      -2.89952819e-04 -4.12534922e-04 -5.74768754e-04 -7.37400784e-04
      -5.41325135e-04 6.30637587e-05 2.56647676e-04 -1.34220361e-04
      -3.02337750e-04 -2.25527387e-04 -6.15566678e-04 -2.42562062e-04
      -3.17829472e-05 0. 0. 0. -1.29698119e-05 -1.02118087e-04
      -1.64594036e-04 -3.93822294e-04 -3.50483402e-04 -5.20847621e-04
      -7.51391868e-04 -9.53102775e-04 -4.23917576e-04 3.52940027e-04
      1.14615599e-03 2.70170742e-04 -6.52689196e-04 -8.05361429e-04
      -9.63311701e-04 -3.28746886e-04 -4.65010125e-05 0. 0. 0. 0.
      -8.36951949e-05 -1.45495229e-04 -1.93382919e-04 -1.48376392e-04
      -2.11583203e-04 -5.18581073e-04 -7.12020788e-04 -4.09489847e-04
      2.99175968e-04 1.20363024e-03 4.08898079e-04 -9.66905325e-04
      -5.76556427e-04 -7.07812549e-04 -2.87226198e-04 -2.40043373e-05 0.
      0. 0. 0. -1.85547706e-05 -4.40395743e-05 -5.69238364e-05
      -5.44266186e-05 -3.61505408e-05 -2.55646039e-04 -3.82575468e-04
      -2.34871972e-04 1.02439360e-03 6.98141870e-04 -1.62164491e-04
      -5.70467906e-04 -3.76258831e-04 -4.41871438e-04 -1.21355224e-04
      -1.37167644e-05 0. 0. 0. 0. 0. 0. -4.82832438e-05 -1.70843894e-04
      -2.31853235e-04 -2.90074473e-04 -2.58732267e-04 2.75865576e-04
      9.26976500e-04 3.44494387e-04 -5.50827070e-04 -4.68555052e-04
      -4.45352314e-04 -2.04910917e-04 -6.02256696e-05 -3.22169799e-05 0.
      0. 0. 0. -1.03778530e-06 -1.17844847e-05 -1.57126458e-04
      -2.00336246e-04 -1.95622444e-04 -1.20424724e-04 4.59476678e-06
      -5.22997834e-05 -2.30594873e-04 4.07002517e-04 7.66175217e-05
      -3.63535859e-04 -5.73402911e-04 -3.22526757e-04 -2.68609961e-04
      -2.75186700e-04 -2.68474832e-05 0. 0. 0. -1.72964224e-06
      -4.06653307e-05 -1.99550603e-04 -1.75981637e-04 -8.87764545e-05 0.
      -1.41823795e-04 -5.43030153e-04 -1.27835912e-04 1.16497038e-04
      -1.32853136e-04 -3.35866236e-04 -3.78037774e-04 -2.35787345e-04
      -3.28741531e-04 -3.31566436e-04 -4.56407215e-05 0. 0. 0.
      -2.00638497e-05 -3.82855142e-05 -1.03703467e-04 -4.08528795e-05
      7.59040195e-05 5.41142217e-05 -2.55574851e-04 -5.16160333e-04
      2.62637070e-04 -5.23848248e-05 -3.64024709e-05 1.17995041e-04
      1.55119895e-04 2.49858247e-04 -3.48603426e-05 -8.05424497e-05
      -4.02712249e-06 0. 0. 0. -7.26449753e-06 -4.15114118e-06 0.
      5.28986529e-05 5.01134200e-04 1.57311573e-04 -3.37983307e-04
      3.32655269e-04 -7.84669755e-05 5.12692437e-04 2.01701187e-04
      3.44532338e-04 4.60608542e-04 3.33283999e-04 9.47321896e-05 0. 0.
      0. 0. 0. 0. 0. 0. 1.25210034e-04 4.49186395e-04 2.42669616e-04
      2.75577622e-04 7.71226885e-04 9.25721688e-05 2.56868188e-05
      1.53871209e-04 2.32938037e-04 1.77719354e-04 1.72240345e-06 0. 0.
      0. 0. 0. 0. 0. 0. 0. -7.06410356e-05 -1.14847448e-04
      3.24634486e-04 2.34429564e-04 -1.46166549e-05 2.94302008e-04
      -1.59294374e-04 4.48129722e-04 6.60469930e-04 2.34707753e-04 0. 0.
      0. 0. 0. 0. 0. 0. 0. 0. -1.69609557e-04 -8.19531793e-04
      -3.12018761e-04 -2.27500423e-04 -1.99013248e-05 -3.42159241e-04
      -4.40116797e-04 -2.36402448e-05 9.93501671e-05 2.25217518e-05 0.
      0. 0. 0. 0. 0. 0. 0. 0. 0. -4.12113077e-05 -2.66288436e-04
      -6.98886695e-04 -9.17658501e-04 -8.71161610e-05 -4.55990637e-04
      -2.84031063e-04 -1.38415693e-04 -7.09824099e-06 0. 0. 0. 0. 0. 0.
      0. 0. 0. 0. 0. 0. 0. 0. 0. -2.81464581e-05 -9.41382386e-05
      -2.13994572e-05 0. 0. 0. 0. 0. 0. 0. 0. 0.</_>
    <_>
      0. 0. 0. 0. 0. 0. 0. 0. 0. 0. 0. 0. 0. 0. 0. 0. 0. 0. 0. 0. 0. 0.
      0. 0. 0. 0. 0. 0. 0. 0. 0. 0. 0. 0. 0. 0. 0. 0. 0. 0. 0. 0. 0. 0.
      0. 0. -5.77220671e-05 -2.31646176e-04 -4.17103234e-04
      -1.39809665e-04 4.24406724e-04 4.54240333e-04 4.92335348e-05
      3.33251555e-05 6.08454429e-05 2.12919404e-05 0. 0. 0. 0. 0. 0. 0.
      0. 0. -1.36710150e-04 -5.31650614e-04 -3.35871135e-07
      2.74450809e-04 -5.02070121e-04 -3.97511722e-05 2.85152782e-04
      -1.13431386e-04 4.91881510e-04 3.77468969e-04 1.98398455e-04
      1.13675958e-06 0. 0. 0. 0. 0. 0. 0. 0. -4.25320497e-04
      -4.54740977e-04 2.09339763e-04 1.31087872e-04 -1.45874778e-03
      -1.31197763e-03 -1.14515179e-03 -2.29124998e-04 4.95086890e-04
      -2.52870843e-04 2.19877649e-04 -6.03745775e-06 -2.47351352e-07 0.
      0. 0. 0. 0. 0. 0. -3.76847660e-04 -5.86806855e-04 1.27887426e-04
      -3.60223203e-04 -3.75971431e-04 6.22803578e-04 -7.27748557e-04
      1.71413936e-04 1.21932407e-03 -5.94163954e-04 1.88973008e-05
      -2.27017852e-04 -6.89564913e-05 0. 0. 0. 0. 0. 0. 0.
      -2.19669280e-04 -7.51452171e-04 -3.52299656e-04 -3.30931478e-04
      -2.67978453e-06 1.29433733e-03 1.13770459e-03 6.18671416e-04
      4.69907187e-04 -5.93936827e-04 -6.07766036e-04 -4.16704162e-04
      -5.10304468e-04 -1.01900456e-04 0. 0. 0. 0. 0. 0. -2.14894899e-05
      -4.93349682e-04 -1.41128665e-03 -1.05755276e-03 -3.31868738e-04
      1.27604872e-03 2.21443013e-03 -1.24340193e-04 -7.34100933e-04
      -1.09770894e-03 -9.93325375e-04 -4.12965979e-04 -7.41838245e-04
      -3.58295132e-04 0. 0. 0. 0. 0. 5.36152620e-05 3.53212963e-04
      9.46467990e-05 -4.25393780e-04 -1.43814657e-03 7.26418075e-05
      1.27786293e-03 3.55129654e-04 -1.14744529e-03 -8.09410354e-04
      -1.21992873e-03 -8.81536049e-04 -8.46770185e-04 -5.85105852e-04
      -1.15048897e-04 0. 0. 0. 0. 0. 2.55310770e-05 1.74152534e-04
      -3.94612334e-06 -5.40502253e-04 -8.07257893e-04 4.26646497e-04
      1.33915120e-04 -5.19800582e-04 -5.95970661e-04 -6.83702179e-04
      -9.65405081e-04 -6.31434552e-04 -3.08988470e-04 -4.27324485e-05 0.
      0. 0. 0. 0. 0. 0. 0. -8.27890399e-05 4.41312623e-05 2.82699330e-04
      -4.08524502e-04 -3.38772748e-04 5.97170801e-05 -7.61928444e-04
      -7.13350659e-04 -9.86133382e-05 -9.86133455e-06 0. 0. 0. 0. 0. 0.
      0. 0. 0. -1.23675676e-07 -1.62193955e-05 5.66940253e-06
      -6.97268755e-04 2.09647900e-04 6.19603728e-04 4.06372739e-04
      -3.67382774e-04 -9.47846973e-04 -1.52219392e-04 0. 0. 0. 0. 0. 0.
      0. 0. 0. -6.18378408e-07 -1.52499779e-04 -6.96104078e-04
      -1.43447320e-03 -6.86457613e-04 1.21689984e-03 2.82578752e-04
      -1.09415432e-03 -7.15037342e-04 -6.47664187e-04 -2.32748309e-04
      -1.09753364e-05 0. 0. 0. 0. 0. 0. 0. -4.78645143e-06
      -1.42437289e-04 -5.11930906e-04 -1.00199808e-03 -5.93127916e-04
      -4.46645950e-04 6.36980345e-04 5.73828467e-04 -2.88154697e-04
      -1.85772951e-04 -1.00124023e-04 4.41120763e-04 -1.71554770e-04
      -2.43040267e-05 0. 0. 0. 0. 0. 0. -5.83106485e-05 -5.28417178e-04
      2.03110016e-04 -5.28735807e-04 6.24597305e-05 -6.32707015e-05
      4.66662401e-04 1.26840733e-03 6.82264334e-04 7.38226445e-05
      -1.49200787e-04 8.01291826e-05 -4.51989734e-04 -3.34180368e-05 0.
      0. 0. 0. 0. 0. -5.47641976e-05 -2.84689275e-04 8.39458138e-04
      9.25576242e-05 1.22865444e-04 8.99108476e-04 -1.06413302e-03
      3.05453519e-04 5.22171795e-05 -2.06643512e-04 -7.69963488e-04
      -7.78068963e-04 -3.03800334e-04 0. 0. 0. 0. 0. 0. 0.
      -2.10573057e-06 -2.49044271e-04 5.22616436e-04 9.49396170e-04
      -6.28392445e-04 -9.36401892e-04 -1.44351134e-03 -2.02224968e-04
      6.62865990e-04 6.52395887e-04 -1.57944451e-04 -2.20724018e-04 0.
      0. 0. 0. 0. 0. 0. 0. 0. -7.16450741e-05 -2.61960580e-04
      4.96389868e-04 1.40020449e-04 -4.25715494e-04 -9.35931166e-04
      -8.23925424e-04 -2.17141918e-04 -2.11725899e-04 -1.81831972e-04
      -6.86931344e-06 0. 0. 0. 0. 0. 0. 0. 0. 0. 0. 0. 0. 0.
      -1.32816167e-05 -2.84912112e-05 -1.04967621e-05 0. 0. 0. 0. 0. 0.
      0. 0. 0. 0. 0. 0. 0. 0. 0. 0. 0. 0. 0. 0. 0. 0. 0. 0. 0. 0. 0. 0.
      0.</_>
    <_>
      0. 0. 0. 0. 0. 0. 0. 0. 0. 0. 0. 0. 0. 0. 0. 0. 0. 0. 0. 0. 0. 0.
      0. 0. 0. 0. 0. 0. 0. 0. 0. 0. 0. 0. 0. 0. 0. 0. 0. 0. 0. 0. 0. 0.
      0. 0. 0. 4.58362083e-05 4.41385710e-05 -5.44351951e-06
      6.05024870e-05 2.29147467e-04 9.49554305e-05 0. 0. 0. 0. 0. 0. 0.
      0. 0. 0. 0. 0. 0. 0. 3.26187263e-04 3.01487104e-04 -3.20799336e-05
      2.97135644e-04 5.39089262e-04 3.89320776e-04 1.38409872e-04
      1.19041404e-04 7.24592101e-05 2.07026324e-06 0. 0. 0. 0. 0. 0. 0.
      -1.82168367e-06 -9.51183665e-06 -2.89241470e-05 6.23266096e-05
      1.23412574e-05 -2.19960173e-04 -6.80627954e-06 4.59443312e-04
      4.68070502e-04 3.81046615e-04 -1.94254135e-05 5.79929765e-05
      3.31242118e-05 0. 0. 0. 0. 0. 0. -4.28631466e-07 -2.63748207e-05
      -1.49353335e-04 -3.26781912e-04 -6.76521973e-04 -2.10345606e-04
      -3.08375056e-05 -3.06232192e-04 -3.29351140e-04 -1.20810379e-04
      -7.62068448e-05 -3.13242053e-04 -2.07910838e-04 -3.67061839e-05 0.
      0. 0. 0. 0. 0. -9.10841834e-07 -3.55866541e-05 -2.08137324e-04
      -5.17617213e-04 -6.53130061e-04 -2.99214968e-04 -3.79871011e-07
      9.19455852e-06 1.83086027e-04 -6.88865885e-06 -2.36062770e-05
      -3.85012769e-04 -3.78381956e-04 -1.06480205e-04 0. 0. 0. 0. 0. 0.
      -2.94684128e-07 -1.86968809e-05 -2.73970014e-04 -4.94481646e-04
      -7.18134397e-04 -8.93201795e-04 3.08454270e-04 6.65210420e-04
      6.26736903e-04 -1.26396510e-04 -2.65264476e-04 -3.65609740e-04
      -3.42177227e-04 -5.80801134e-06 0. 0. 0. 0. 0. 0. 0.
      2.17472279e-05 -7.95836822e-05 -2.04807497e-04 -7.92776584e-04
      -9.23570420e-04 2.51809106e-04 7.48101971e-04 2.23479758e-04
      -6.20284001e-04 -5.06473298e-04 -3.80993326e-04 -9.35232747e-05 0.
      0. 0. 0. 0. 0. 0. 0. 1.01414116e-05 -1.36997973e-04
      -4.10712499e-04 -8.94339813e-04 -9.80897807e-04 5.08096236e-05
      4.09675034e-04 -1.72603162e-04 -5.96956874e-04 -4.78397007e-04
      -3.13076132e-04 -1.78528933e-06 0. 0. 0. 0. 0. 0. 0. 0.
      -2.94684128e-07 -1.62063821e-04 -4.96249879e-04 -6.42661005e-04
      -4.10084467e-04 -1.12791331e-05 3.24982131e-04 -1.81683630e-04
      -7.50519102e-04 -4.28587082e-04 -8.45613395e-05 -2.67793394e-06 0.
      0. 0. 0. 0. 0. 0. 0. 0. -3.67877910e-05 -3.26455192e-04
      -4.17427480e-04 1.27536550e-04 4.71068284e-04 4.00175719e-04
      -1.81579831e-04 -6.16437523e-04 -1.77619193e-04 -6.11791838e-05
      -6.54606083e-06 0. 0. 0. 0. 0. 0. 0. 0. 0. -8.33134982e-06
      -8.31214202e-05 3.43663942e-07 2.15046166e-04 3.58683901e-04
      -1.00272053e-04 -1.99998161e-04 -3.33754375e-04 -1.50382926e-04
      -6.18681952e-05 -2.75388544e-07 0. 0. 0. 0. 0. 0. 0. 0. 0.
      4.78758775e-05 1.16493342e-04 2.48498400e-04 3.12800548e-04
      3.25835659e-04 2.39037414e-04 2.32107996e-04 -2.47029693e-05
      -8.44741680e-06 1.21663325e-04 9.85481674e-05 0. 0. 0. 0. 0. 0. 0.
      0. 3.77725519e-05 4.06708306e-04 4.79642797e-04 2.47441931e-04
      2.83859699e-04 -2.28929966e-05 7.23520759e-04 3.85769323e-04
      1.57987597e-05 2.65618510e-05 1.31378096e-04 6.79725999e-05 0. 0.
      0. 0. 0. 0. 0. 0. 8.98167054e-05 5.65937080e-04 5.77354105e-04
      2.40856898e-04 -3.17720551e-04 -3.87268112e-04 4.22485522e-04
      2.30254896e-04 -7.82364368e-05 2.66438783e-05 -4.27498926e-05 0.
      0. 0. 0. 0. 0. 0. 0. 0. 1.35945193e-05 8.51840887e-05
      4.20037250e-04 1.00119185e-04 -1.76438392e-04 -2.06349665e-04
      1.39647454e-05 2.78099091e-04 1.15761497e-04 1.30140223e-04
      -5.53368409e-05 0. 0. 0. 0. 0. 0. 0. 0. 0. -1.93600386e-06
      -2.90758006e-04 1.04192288e-04 -1.01004276e-04 9.82433448e-06
      -6.37725170e-05 -3.01124208e-04 -2.67954572e-04 -2.16806991e-04
      -8.44435635e-05 -3.05539106e-05 0. 0. 0. 0. 0. 0. 0. 0. 0. 0.
      -1.66032798e-04 -2.34760562e-04 -2.26121309e-04 -7.00368546e-05
      -8.66295886e-05 -1.10050787e-04 -8.80424705e-05 -1.45335551e-04
      -9.62745762e-05 -4.22976336e-06 0. 0. 0. 0. 0. 0. 0. 0. 0. 0.
      -1.21187304e-05 -1.79944782e-05 -3.67234236e-07 -2.99405792e-06
      -9.98019277e-06 -3.16039450e-06 0. -2.22094532e-05 -1.59452484e-05
      0. 0. 0. 0. 0. 0.</_>
    <_>
      0. 0. 0. 0. 0. 0. 0. 0. 0. 0. 0. 2.70036689e-05 9.23809694e-06 0.
      0. 0. 0. 0. 0. 0. 0. 0. 0. 0. 0. 0. 0. 0. 0. 0. 0. 1.15831528e-04
      5.89816991e-05 0. 0. 0. 0. 0. 0. 0. 0. 0. 0. 0. -3.90858477e-05
      -7.89364276e-05 -4.39145606e-06 4.43025783e-04 5.89153729e-04
      3.60902195e-04 -4.65656718e-04 -6.55908661e-04 -2.36478649e-04
      5.58059292e-05 1.16167648e-04 0. 0. 0. 0. 0. 0. 0. -4.42166629e-06
      -1.86956444e-04 -4.06458304e-04 -3.36091034e-04 2.06722820e-04
      2.81327870e-04 7.73946958e-05 5.56293584e-04 4.74253524e-04
      2.10457685e-04 -3.81693331e-04 -3.20855033e-04 2.42684662e-04
      1.18156029e-04 -4.56799571e-05 -1.10836490e-05 0. 0. 0. 0.
      -4.17355222e-05 -2.23949086e-04 -1.85027908e-04 5.22108399e-04
      4.31659922e-04 3.73111950e-04 2.12450279e-04 2.88503594e-04
      8.46685900e-04 6.85813837e-04 -1.50581938e-04 -3.74654832e-04
      6.24717097e-04 3.82289611e-04 -3.89445777e-05 -2.71626650e-05 0.
      0. 0. 0. -1.90493010e-04 -3.94815783e-04 2.68898912e-05
      4.18446543e-05 -7.67373247e-04 2.80032225e-04 -8.89731818e-05
      -1.86396559e-04 -4.40778967e-04 -3.56557110e-04 -4.98229230e-04
      -7.73449021e-04 -3.44496395e-04 3.24662367e-04 -7.97562643e-06
      -1.21415351e-05 0. 0. 0. -1.34989596e-05 -4.98443085e-04
      -1.91602536e-04 4.15940129e-04 4.52582521e-04 1.17833297e-04
      8.56734812e-04 -1.31938896e-05 -3.69996997e-04 1.27250067e-04
      -4.30421969e-05 -5.62369532e-04 -3.80015554e-04 -4.30924469e-04
      3.69320216e-04 3.06211609e-06 1.09712937e-05 0. 0. 0.
      -1.73063581e-05 -1.51255372e-04 1.18878161e-05 1.88294769e-04
      8.32830628e-05 -1.05700579e-04 -1.94918975e-05 -5.99474355e-04
      -7.18291558e-04 -3.82877362e-04 3.20408253e-05 -7.47571357e-06
      -6.57627825e-04 -1.12928537e-04 4.04078484e-04 6.37322373e-05
      8.68560746e-05 1.82854910e-05 0. 0. 0. 0. 6.65846665e-06
      -6.94927940e-06 -4.47992730e-04 -7.17489456e-04 -1.00028247e-03
      -1.37304887e-03 -1.58462347e-03 -1.53982278e-03 -5.15922031e-04
      -6.47077512e-04 -2.00687078e-04 6.94601622e-05 3.87686596e-04
      7.81775598e-05 1.01484467e-04 1.18855687e-05 0. 0. 0. 0. 0.
      -1.21680794e-04 -4.66835569e-04 -4.93003521e-04 -4.00495337e-04
      -6.65926374e-04 -7.87456287e-04 -7.77209934e-04 -9.25896689e-04
      -2.62123183e-04 3.66663648e-04 -2.57449869e-06 1.98564128e-04
      1.78574948e-04 1.06815169e-04 0. 0. 0. 0. 0. -1.32627702e-06
      1.50247215e-04 6.45674125e-04 6.47293054e-04 1.98872876e-04
      -3.62339080e-04 2.09271704e-04 -6.56759003e-05 -3.26065638e-04
      8.27882759e-05 2.96902581e-04 -9.99713884e-05 5.49644210e-05
      2.58708955e-04 2.45120464e-04 0. 0. 0. 0. -1.63822588e-05
      6.56794073e-05 5.99746651e-04 6.06813759e-04 1.21389015e-03
      6.26369787e-04 -1.15983346e-06 3.38669866e-04 1.11936723e-04
      -6.93590031e-04 -6.45591528e-04 -5.82177367e-04 2.68013478e-04
      3.94224306e-04 5.14245068e-04 2.82275374e-04 0. 0. 0. 0.
      -9.71986447e-05 -5.93057703e-05 2.41519228e-04 1.25503095e-04
      1.29310996e-03 8.73014505e-04 6.62208593e-04 8.86363385e-04
      4.04949533e-04 -4.15941729e-04 -5.19678753e-04 -1.36167929e-03
      -1.16561951e-05 2.93359393e-04 6.16444449e-04 3.98427044e-04 0. 0.
      0. 0. -4.66880854e-04 -5.49517863e-04 2.30531441e-04
      6.51483075e-04 5.07462304e-04 1.04864442e-03 1.62450585e-03
      1.04436092e-03 -1.37019742e-05 -5.54852304e-04 -4.22665966e-04
      -3.73193761e-04 2.98726518e-04 9.47582128e-04 1.06263568e-03
      8.45995324e-04 0. 0. 0. 0. -5.69777738e-04 -7.28747807e-04
      -1.82501652e-04 -5.23600029e-04 -2.52127211e-04 1.24033424e-03
      1.14130008e-03 5.92967030e-04 -2.67238327e-04 -6.08038099e-04
      -2.96107493e-04 3.21110158e-04 4.26724073e-05 2.82651599e-04
      5.75571088e-04 4.03994112e-04 0. 0. 0. 0. -4.70537489e-05
      -8.77337734e-05 -1.45293423e-04 -5.50196972e-04 -2.90171796e-04
      1.08137715e-03 4.46302205e-04 3.29267205e-05 -3.66024207e-04
      -6.32410229e-04 -2.78286025e-04 5.66553172e-05 -8.32368154e-04
      -3.22059786e-04 2.18067755e-04 0. 0. 0. 0. 0. 0. -2.54308288e-05
      5.70517932e-06 -1.96658177e-04 -5.92548204e-05 2.94388185e-04
      1.52214634e-04 1.29611908e-05 -2.13935506e-04 -3.78363242e-04
      -3.08281684e-04 5.17189801e-06 -3.31838295e-04 3.92283429e-04
      3.95650073e-04 1.27865178e-05 0. 0. 0. 0. 0. 0. -5.46874871e-05
      -1.38614094e-04 -4.36660885e-05 -2.60799454e-04 -5.67202980e-04
      -6.36968995e-04 -8.20920512e-04 -2.30991383e-04 3.22898122e-04
      1.91881554e-04 -4.47128878e-05 7.27531879e-05 2.42424736e-04
      1.86342022e-05 0. 0. 0. 0. 0. 0. -9.34953714e-05 -3.20041843e-04
      -4.20729164e-04 -5.39396366e-04 -5.42992377e-04 -5.42992377e-04
      -3.77577468e-04 -6.04655906e-05 -4.17521551e-05 -1.11339075e-04
      -1.84588469e-04 -1.17199030e-04 -2.63697821e-05 0. 0. 0. 0. 0. 0.
      0. 0. 0. 0. 0. 0. 0. 0. -2.19748176e-06 -3.00322517e-05
      -5.34720566e-05 -4.98095869e-05 -1.46498780e-06 0. 0. 0. 0.</_>
    <_>
      0. 0. 0. 0. 0. 0. 0. 0. 0. 0. 0. 6.12497097e-05 2.09538484e-05 0.
      0. 0. 0. 0. 0. 0. 0. 0. 0. 0. 0. 0. 0. 0. 0. 0. 0. 2.62729009e-04
      1.33782261e-04 0. 0. 0. 0. 0. 0. 0. 0. 0. 0. 0. 0. 1.78447408e-06
      1.01159938e-04 5.84274880e-04 1.59921983e-04 2.36215012e-04
      4.21436445e-04 3.00781248e-04 5.56981657e-04 3.35660239e-04
      1.52607507e-04 6.79529621e-05 0. 1.00562704e-06 5.02813521e-07 0.
      0. 0. 0. 6.10865345e-06 1.03191533e-05 -8.75970363e-05
      1.08355875e-04 3.09187628e-04 -2.76557694e-04 1.23752921e-04
      1.03317923e-03 9.56675445e-04 -1.75559820e-04 7.18829106e-05
      2.88914249e-04 2.88043375e-04 -1.26573595e-05 4.70624873e-05
      3.62025712e-05 0. 0. 0. 0. 1.49036918e-04 2.81636632e-04
      -1.61877266e-04 -4.55483474e-04 2.08890167e-04 1.63770339e-04
      -1.07658918e-04 8.27090174e-04 1.01567793e-03 9.45371503e-05
      1.97058020e-04 8.56754832e-06 -2.53248785e-04 -4.42752993e-04
      -6.21342479e-05 -8.01942588e-05 0. 0. 0. 1.55544149e-05
      4.63194301e-04 8.20696121e-04 5.17344277e-04 -9.18395599e-05
      -2.65852170e-04 2.10898026e-04 1.10962556e-03 1.10822637e-03
      -7.58010356e-05 -1.29638967e-04 6.14740246e-04 3.36494486e-05
      -7.62226060e-04 -5.09604404e-04 -1.79439288e-04 -1.08589193e-04 0.
      0. 0. -1.75803689e-06 1.19772136e-04 7.16646551e-04 1.21550780e-04
      -2.18794434e-04 -6.87477936e-04 -2.60679692e-04 6.20759907e-04
      4.61612617e-05 -7.29427207e-04 5.06597455e-04 4.34612775e-05
      -4.20761557e-04 -1.79128649e-04 1.04461382e-04 -4.91517676e-05
      -4.45037676e-06 0. 0. 0. -6.54091782e-05 -3.13744065e-04
      -3.58303863e-04 -9.12762829e-04 -6.68786233e-04 -8.52040830e-04
      4.85080760e-04 -3.22995300e-04 -4.61767399e-04 6.94867340e-05
      5.75653801e-04 -2.99415551e-04 -1.19778875e-03 7.53500717e-05
      1.07267697e-04 1.51016604e-04 6.25835019e-05 0. 0. 0.
      -1.02149083e-04 -7.47328566e-04 -1.02124258e-03 -9.91305453e-04
      -1.62811170e-03 -2.46014539e-03 -1.12712779e-03 -1.50242448e-03
      -5.02257026e-04 3.00254236e-04 -5.72989811e-04 -5.53298887e-05
      5.19689311e-05 4.51782580e-05 6.64447551e-04 9.68102773e-04
      7.70565355e-04 1.20002958e-04 0. 0. -2.76138708e-05
      -1.23109188e-04 -5.76581457e-04 -1.15181587e-03 -1.46966451e-03
      -1.15161319e-03 -9.47877124e-04 3.46490735e-04 3.02711327e-04
      2.95526934e-06 -7.14657246e-04 2.42130292e-04 1.93437416e-04
      1.35347058e-04 1.06082682e-03 1.42260012e-03 1.04868365e-03
      1.53337111e-04 0. 0. -2.86752020e-05 -3.78129043e-05
      -5.35318104e-04 -4.49635234e-04 5.22037080e-05 -8.46224837e-04
      -9.05920402e-04 1.99665548e-04 2.50368903e-04 -2.80474254e-04
      -7.73656473e-04 -2.01824747e-04 -2.15078122e-04 -5.59523993e-04
      3.07044247e-05 6.94006041e-04 3.22552602e-04 6.88105283e-05 0. 0.
      -4.43101599e-05 -2.95673090e-04 -1.11678099e-04 4.98559384e-04
      4.80459654e-04 -4.29734559e-04 2.23169234e-04 -5.83894616e-05
      -6.28244161e-05 -5.93159755e-04 -3.57017241e-04 -3.42538871e-04
      2.99304054e-04 -7.63888995e-04 -1.00058853e-04 1.17762748e-03
      9.58862482e-04 1.44502104e-04 0. 0. 0. -1.26107392e-04
      4.91543360e-05 -9.69289802e-04 9.31729504e-04 1.23893248e-03
      1.36834639e-03 -4.21614473e-04 7.89615297e-05 -6.68454391e-04
      -1.92133710e-04 -2.50288547e-04 4.85809083e-04 5.25760348e-04
      9.35231452e-04 8.01520131e-04 1.59240415e-04 3.44052637e-06 0. 0.
      -8.17208129e-05 -6.92996255e-04 -7.68475642e-04 3.70907401e-05
      1.73484918e-03 1.61015533e-03 2.20163958e-04 -2.34223902e-04
      3.00987769e-04 -1.08654574e-04 1.09296067e-04 -1.25478880e-04
      4.08859371e-04 5.46717725e-04 9.94298491e-04 8.31173907e-04 0. 0.
      0. 0. -6.93503607e-05 -2.51831982e-04 5.45098970e-04
      6.73799193e-04 1.43488881e-03 7.93364423e-04 -3.01620312e-04
      2.16922883e-04 -1.56644164e-04 -5.09060046e-04 -2.71621742e-04
      -1.26457526e-04 -2.54104496e-04 -3.47483263e-04 -4.20662691e-04
      -7.38860217e-06 1.09286066e-06 0. 0. 0. 8.64084200e-08
      2.77794406e-05 6.03103661e-04 8.87089584e-04 1.31709909e-03
      7.53321452e-04 6.66857464e-04 4.31210268e-04 -2.68645614e-04
      -3.77817341e-04 -5.74199330e-05 -5.36833715e-04 -3.82915285e-04
      -1.79468349e-04 -4.63675970e-04 -7.28861924e-05 1.53000492e-05 0.
      0. 0. 0. 2.59225260e-07 3.98458978e-05 2.50112091e-04
      1.17416792e-04 -8.65978771e-04 -4.89643185e-07 -2.60989356e-04
      -3.69151385e-05 1.87699319e-04 -4.03236045e-05 -1.19472526e-04
      2.68166536e-04 4.81331372e-04 -2.04438562e-04 -8.93125543e-05
      2.84143766e-06 0. 0. 0. 0. 0. 0. 2.54924862e-06 -2.59833934e-04
      -4.47645929e-04 -2.06495242e-04 -5.45329531e-05 -2.62563903e-04
      -1.10971887e-04 -3.28550705e-05 1.24865561e-04 3.81433965e-05
      9.46368309e-05 1.28303536e-05 -8.47012689e-06 0. 0. 0. 0. 0. 0. 0.
      0. -9.94560542e-05 -1.19616067e-04 0. -4.45037676e-06
      -8.72273813e-05 -2.75923358e-05 0. 0. 0. 0. 0. 0. 0. 0. 0. 0. 0.
      0. 0. 0. 0. 0. 0. 0. 0. 0. 0. 0. 0. 0. 0. 0. 0. 0.</_>
    <_>
      0. 0. 0. 0. 0. 0. 0. 0. 0. 0. 0. 1.29921846e-05 4.44469470e-06 0.
      0. 0. 0. 0. 0. 0. 0. 0. 0. 0. 0. 0. 0. 0. 0. 0. 0. 5.57296335e-05
      2.83776662e-05 0. 0. 0. 0. 0. 0. 0. 0. 0. 0. 0. 0. 0.
      2.66437328e-05 1.51877583e-04 1.20350487e-04 1.87041267e-04
      2.06027587e-04 -4.86716308e-05 3.80340556e-04 4.49833780e-04
      1.97357658e-04 9.31424656e-05 2.85124188e-05 -1.03591396e-04
      -5.89874471e-05 0. 0. 0. 0. 0. 9.80667573e-06 9.32338007e-05
      1.87994039e-04 3.61871680e-05 -2.47484859e-04 -1.54897047e-04
      2.54417362e-04 9.53173614e-04 4.80487652e-04 -6.51549562e-05
      -1.60769050e-04 -5.97947801e-04 -7.79910653e-04 -6.07755326e-04
      -1.92335094e-04 0. 0. 0. 0. 0. 1.12870541e-04 2.40601366e-04
      1.79640119e-04 -6.87175416e-05 2.38156317e-05 -3.26989284e-05
      8.52090016e-04 1.25574134e-03 5.18839224e-05 -9.48993780e-04
      -7.14494206e-04 -4.05147672e-04 -3.13707947e-04 -3.04992107e-04
      -2.13441919e-04 -4.40641634e-05 0. 0. 0. 1.42991092e-04
      4.54144960e-04 5.96247031e-04 3.70994559e-04 4.95991204e-04
      1.86576202e-04 -6.92528964e-04 -1.91776984e-04 5.98794068e-05
      6.21594372e-04 7.52409745e-04 -1.07598418e-04 -7.20485579e-04
      -1.12558110e-03 -1.11434353e-03 -2.56310072e-04 -7.27229644e-06 0.
      0. 0. 1.25081991e-04 2.56467843e-04 1.15296942e-04 -2.64783652e-04
      -8.82816894e-05 -4.32575413e-04 3.32420532e-05 -3.92617279e-04
      7.22517492e-04 4.56183305e-04 -1.46252292e-04 -4.91690764e-04
      -6.14025106e-04 -7.94491556e-04 -5.01104281e-04 -9.83959035e-05
      -2.31927297e-05 0. 0. 0. -3.23528297e-06 3.94738781e-05
      -2.32789258e-04 -5.43115020e-04 -1.08632480e-03 -5.72185789e-04
      -4.06867504e-04 -5.60761662e-04 2.49930075e-04 5.14174870e-04
      3.10422300e-04 6.48572459e-04 2.81154469e-04 -1.07299738e-05
      5.08114535e-05 3.57155341e-06 -2.16203421e-06 0. 0. 0.
      -1.60927593e-05 -5.78455147e-05 -1.52222899e-04 -1.07304915e-03
      -1.80727465e-03 -9.52264061e-04 -9.02755477e-04 -7.61451782e-04
      -3.90308502e-04 -5.35747313e-05 8.29373719e-04 1.26613711e-03
      6.47555455e-04 4.08045802e-04 4.56992449e-04 2.65874958e-04
      2.68466774e-05 0. 0. 1.16923150e-06 6.16845937e-05 1.07419000e-04
      -1.91085957e-04 -1.08687533e-03 -9.04247747e-04 -1.16649107e-03
      -1.00491736e-04 -2.44028124e-04 4.76656336e-04 -2.87473202e-04
      5.51280798e-04 8.40387598e-04 5.09586302e-04 6.20077888e-04
      4.33910260e-04 2.56358733e-04 3.43040883e-05 0. 0. 2.01958164e-06
      5.80055348e-05 2.20835704e-04 7.62830814e-06 -1.09619914e-05
      -1.88308616e-06 -5.94382873e-04 2.40374502e-04 2.00018345e-04
      1.51945686e-04 -1.19455188e-04 -2.24158270e-04 -5.39781817e-04
      7.53359054e-05 3.53490061e-04 3.23264801e-04 2.77201645e-04
      6.30780705e-05 0. 0. 0. 7.53968343e-05 1.08067135e-04
      8.17746215e-04 1.40964868e-03 1.11947453e-03 7.26840692e-04
      8.07821925e-05 3.16429723e-05 -8.90872383e-04 -2.62482092e-04
      3.21409054e-04 -7.50057225e-04 -1.79902549e-04 7.39355804e-04
      8.18897039e-04 7.15860748e-04 1.32463945e-04 0. 0. 0.
      1.86702688e-04 -5.01585659e-04 -5.61398920e-04 8.02649069e-04
      1.21183007e-03 7.79213151e-04 1.03348575e-03 6.04490517e-04
      -3.20995576e-04 4.07854852e-04 4.25609440e-04 -1.83722135e-04
      -3.20904976e-04 7.18495576e-04 5.96682774e-04 9.30441674e-05
      3.15390366e-06 0. -1.56100607e-04 -2.25784708e-04 2.30231104e-04
      -1.67781764e-04 -4.16076713e-04 3.22260283e-04 1.02662726e-03
      1.04430912e-03 1.04356906e-03 1.94477343e-05 3.47008317e-04
      -4.70558989e-05 -5.51223115e-04 -5.03732066e-04 7.11769244e-05
      8.76447011e-04 7.74671556e-04 1.70660439e-06 0. 0. -3.20006249e-04
      -6.37306599e-04 8.84154433e-05 6.52562710e-04 -5.11122111e-04
      -2.02737298e-04 1.94026754e-04 2.80190696e-04 -6.91765194e-07
      -9.02719839e-05 -3.04839486e-04 -3.11779615e-04 -3.67184402e-04
      4.74719011e-04 6.89426553e-04 4.49544255e-04 3.76344484e-04
      2.31493260e-07 0. 0. -1.04067067e-05 -8.02806171e-05
      -2.88013762e-05 3.85548861e-04 1.90215986e-04 5.57329971e-04
      6.33747666e-04 1.29872540e-04 4.87427997e-06 -4.84153803e-04
      1.13157206e-04 5.47784963e-04 1.11213594e-04 2.83875834e-05
      -1.85570752e-04 -3.46205692e-04 -1.57745118e-04 3.24090570e-06 0.
      0. 0. 0. 1.40827115e-05 1.20927114e-04 -1.48193241e-04
      -1.99666174e-04 -2.65654759e-04 -3.33737873e-04 -4.04456281e-04
      -5.31861260e-05 1.51750923e-04 1.41423981e-04 -1.26711748e-04
      -3.06682637e-06 -3.63325380e-05 -2.60701287e-04 -1.00405632e-04
      6.01882505e-07 0. 0. 0. 0. -5.41389891e-05 -1.94474793e-04
      -2.77385901e-04 -3.52299714e-04 -6.25482877e-04 -5.92696189e-04
      -4.82898031e-04 -3.61779646e-04 -2.88529351e-04 -1.94656939e-04
      8.51409277e-05 2.15893597e-04 2.16259621e-04 1.83408702e-05 0. 0.
      0. 0. 0. 0. 0. 0. -5.89645651e-06 -2.22099861e-05 -1.21860103e-05
      -2.75167986e-06 0. 0. -1.18737371e-05 -5.52585479e-05
      -1.18737371e-05 0. 0. 0. 0. 0. 0. 0. 0. 0. 0. 0. 0. 0. 0. 0. 0. 0.
      0. 0. 0. 0. 0. 0. 0. 0. 0.</_>
    <_>
      0. 0. 0. 0. 0. 0. 0. 0. 0. 0. 0. 5.24291354e-05 1.79362833e-05 0.
      0. 0. 0. 0. 0. 0. 0. 0. 0. 0. 0. 0. 0. 0. 1.14222690e-04
      2.50281068e-04 1.55760630e-04 2.01057934e-04 7.11763932e-05
      -5.25698008e-04 -2.30051359e-04 0. 0. 0. 0. 0. 0. 0. 0. 0. 0. 0.
      2.17716224e-05 1.61342206e-04 4.50285792e-04 5.09621808e-04
      9.46654982e-05 5.12088736e-05 -5.01567556e-04 -1.44154869e-03
      -2.87500530e-04 -1.68941537e-04 -3.76740849e-04 -9.20465391e-06 0.
      0. 0. 0. 0. 0. 5.00570895e-05 9.41057369e-05 2.59390858e-04
      2.26133867e-04 3.59117810e-04 4.47065919e-04 5.05330565e-04
      1.87901023e-04 -1.29365304e-03 -1.26164570e-03 -3.25021538e-04
      -2.38108856e-04 -2.36312015e-04 -1.51788117e-05 0. 0. 0. 0. 0.
      6.23662054e-05 2.08742189e-04 4.25088976e-04 3.92159563e-04
      2.58860440e-04 -4.16444163e-05 1.07037893e-04 1.55363392e-04
      3.64098487e-05 -2.91469078e-05 -4.30386746e-04 -2.32556158e-05
      5.01642586e-04 9.28103691e-05 -5.83800420e-06 0. 0. 0. 0. 0.
      4.18401578e-05 3.83270002e-04 4.06953041e-04 4.70383500e-04
      5.57936146e-04 2.11527964e-04 1.06318982e-03 7.86597811e-05
      -1.14600320e-04 9.69294808e-04 7.87706231e-04 4.08449268e-04
      7.35463982e-04 1.09589346e-04 0. 0. 0. 0. 0. 0. 1.37309078e-04
      1.91798041e-04 6.10328316e-05 1.40574906e-04 -3.33714008e-04
      2.23235911e-05 5.66692266e-04 -4.17768388e-05 1.94812121e-04
      1.65533554e-03 1.31628930e-03 6.95504772e-04 6.69254921e-04
      1.41139491e-04 2.27644341e-05 0. 0. 0. 0. 0. 9.21497485e-05
      -4.79178561e-04 -4.91411192e-04 -9.54053176e-05 -4.12555557e-04
      -7.47052400e-05 -8.45825343e-05 3.53685435e-04 1.32819777e-03
      9.96818999e-04 4.48697479e-04 3.09964060e-04 -1.53519111e-04
      -2.42992959e-04 -5.77773017e-06 3.15403049e-05 0. 0. 0. 0.
      1.02877293e-05 -9.11337265e-04 -7.21956079e-04 -4.18046955e-04
      -1.32389867e-03 -5.14687039e-04 -2.39552115e-04 9.69467001e-05
      9.92151443e-04 1.85241788e-05 -3.92166432e-04 3.96371674e-04
      8.81332198e-06 2.75253587e-05 1.11796719e-04 3.15376412e-04
      3.56969504e-05 0. 0. 0. -1.55482354e-04 -6.00499450e-04
      -7.46976759e-04 -7.26202619e-04 -1.32624339e-03 -4.53609624e-04
      -2.71981204e-04 -3.68061563e-04 -1.19673045e-04 -2.04683442e-04
      3.25888512e-04 8.09208781e-04 2.57859094e-04 1.50467487e-04
      7.94131483e-05 3.30257724e-04 4.56127709e-05 0. 0. 0.
      -2.07840596e-04 1.18158619e-04 -2.10590937e-04 2.19024791e-04
      -3.92445538e-04 9.56530494e-05 3.83594044e-04 -2.55307707e-04
      -1.81835509e-04 -1.39559386e-04 -2.41616726e-04 -3.77305027e-04
      -9.57060605e-04 -9.32582479e-04 3.98540651e-05 2.31432103e-04
      5.19766145e-05 0. 0. 0. -1.14462076e-04 2.60246394e-04
      4.78385686e-04 9.61349637e-04 3.80452519e-04 1.17194410e-04
      2.47025455e-04 -3.80851619e-04 1.68142331e-04 2.29291079e-04
      -3.46448069e-04 -4.77888447e-04 -3.60853242e-04 -3.24450404e-04
      3.21522995e-04 4.98303853e-04 1.09150889e-04 0. 0. 0.
      2.29843077e-04 6.76587573e-04 -1.81965195e-04 6.21933374e-04
      6.46697226e-05 1.18406235e-04 4.30242450e-04 5.10063197e-04
      3.47551686e-04 2.65347626e-04 -2.08876969e-04 -2.76477862e-04
      1.39699070e-04 6.12845062e-04 -2.16826884e-04 -3.26619018e-04
      2.59883086e-06 0. 0. 0. 2.82434165e-04 1.12751464e-03
      1.50839871e-04 7.78810954e-06 -6.04494126e-04 -4.80875722e-04
      4.65595622e-05 -5.23491704e-04 -6.04036089e-04 -3.33967473e-04
      -3.33781267e-04 1.35574141e-04 6.89164095e-04 3.41739040e-04
      -1.84479839e-04 -7.04207778e-05 0. 0. 0. 0. 2.78426101e-04
      1.06507202e-03 1.65339603e-04 3.35305114e-04 -1.32862086e-04
      -1.58019335e-04 -6.42573461e-04 -1.50439516e-03 -1.45693542e-03
      -7.86813151e-04 -1.59124305e-04 3.16175981e-04 5.31898346e-04
      3.51966621e-04 1.85691635e-04 0. 0. 0. 0. 2.89174295e-07
      1.17219890e-04 3.83251754e-04 6.04800953e-05 5.43714617e-04
      8.12466198e-04 -2.13352076e-04 -7.39977346e-04 -1.09298585e-03
      -7.27911422e-04 2.71419354e-04 3.84763698e-04 1.17346703e-04
      2.91601289e-04 1.21107827e-04 1.64121604e-06 1.78777736e-06 0. 0.
      0. 0. 5.78348590e-06 4.92097706e-06 2.01567746e-04 2.86148366e-04
      6.65770203e-04 6.54600095e-04 -2.74887221e-04 -3.31854913e-04
      1.80620860e-04 3.31723248e-04 1.46382865e-06 -1.39503041e-04
      3.85246021e-05 2.41740308e-05 0. 6.61477607e-05 3.39677717e-05 0.
      0. 0. 0. 2.63333436e-06 4.00537938e-05 1.99712722e-05
      2.66049337e-05 3.41476880e-05 -1.04157407e-05 3.77857796e-05
      6.17586629e-05 1.41936644e-05 -9.55399355e-06 -2.86619816e-05
      1.39707054e-05 1.80520365e-05 0. 1.60899963e-05 7.15110946e-06 0.
      0. 0. 0. 0. 0. 0. 0. 0. 0. 0. 0. 0. 0. 0. 0. 0. 0. 0. 0. 0. 0. 0.
      0. 0. 0. 0. 0. 0. 0. 0. 0. 0. 0. 0. 0. 0. 0. 0. 0.</_>
    <_>
      0. 0. 0. 0. 0. 0. 0. 0. 0. 0. 0. 3.56535165e-05 1.21972553e-05 0.
      0. 0. 0. 0. 0. 0. 0. 0. 0. 0. 0. 0. 0. 0. 0. 0. 0. 1.52934823e-04
      7.78747853e-05 0. 0. 0. 0. 0. 0. 0. 0. 0. 0. 0. 0. 3.80409324e-06
      1.73901408e-05 1.08688380e-06 3.34407696e-06 3.07655078e-04
      6.48750924e-04 3.02961649e-04 1.79205832e-04 0. 0. 0. 0. 0. 0. 0.
      0. 0. 0. 6.87006604e-06 7.55707224e-05 1.72894230e-04
      2.78317893e-04 1.94949185e-04 2.54349463e-04 9.82067548e-04
      1.11522723e-03 6.68291119e-04 5.44111128e-04 1.53453337e-04
      5.91739195e-07 6.75810152e-05 1.11309899e-04 8.94454570e-06 0. 0.
      0. 0. 0. 1.20619348e-04 2.29113444e-04 3.32847674e-04
      3.46019748e-04 2.36967055e-04 6.87652093e-04 6.28143316e-04
      9.81173944e-04 4.12629102e-04 -1.96592009e-04 2.93266668e-04
      2.67884636e-04 1.12888272e-04 1.56564303e-04 3.08089911e-05 0. 0.
      0. 0. 8.89881520e-08 2.26912583e-04 2.66971154e-04 -2.19268459e-05
      2.89755786e-04 3.67442321e-04 -6.34527998e-04 -7.42604083e-04
      -2.90119264e-04 -2.49831821e-04 -6.17316808e-04 -1.18983968e-04
      4.07297630e-05 1.65993952e-05 9.13677650e-05 9.93838398e-07 0. 0.
      0. -4.05010951e-06 2.02554747e-05 -6.91371270e-06 -8.48624695e-05
      -5.47137810e-04 -2.17700013e-04 1.45682498e-04 -4.15685994e-04
      1.35627677e-04 -1.58539973e-04 -7.80470844e-04 -4.24838974e-04
